{"learner":{"attributes":{"scikit_learn":"{\"_estimator_type\": \"classifier\"}"},"feature_names":["xyz_concern","xyz_knowledge","behavioral_avoidance","behavioral_face_mask","behavioral_wash_hands","behavioral_large_gatherings","behavioral_outside_home","behavioral_touch_face","doctor_recc_xyz","doctor_recc_seasonal","chronic_med_condition","child_under_6_months","health_worker","health_insurance","opinion_xyz_vacc_effective","opinion_xyz_risk","opinion_xyz_sick_from_vacc","opinion_seas_vacc_effective","opinion_seas_risk","opinion_seas_sick_from_vacc","household_adults","household_children","age_group_18___34_Years","age_group_35___44_Years","age_group_45___54_Years","age_group_55___64_Years","age_group_65__Years","education_12_Years","education___12_Years","education_College_Graduate","education_Some_College","education_nan","employment_occupation_bxpfxfdn","employment_occupation_ccgxvspp","employment_occupation_cmhcxjea","employment_occupation_dcjcmpih","employment_occupation_dlvbwzss","employment_occupation_emcorrxb","employment_occupation_haliazsg","employment_occupation_hfxkjkmi","employment_occupation_hodpvpew","employment_occupation_kldqjyjy","employment_occupation_mxkfnird","employment_occupation_oijqvulv","employment_occupation_pvmttkik","employment_occupation_qxajmpny","employment_occupation_rcertsgn","employment_occupation_tfqavkke","employment_occupation_ukymxvdu","employment_occupation_uqqtjvyb","employment_occupation_vlluhbov","employment_occupation_xgwztkwe","employment_occupation_xqwwgdyp","employment_occupation_xtkaffoo","employment_occupation_xzmlyyjv","employment_occupation_nan","employment_industry_arjwrbjb","employment_industry_atmlpfrs","employment_industry_cfqqtusy","employment_industry_dotnnunm","employment_industry_fcxhlnwr","employment_industry_haxffmxo","employment_industry_ldnlellj","employment_industry_mcubkhph","employment_industry_mfikgejo","employment_industry_msuufmds","employment_industry_nduyfdeo","employment_industry_phxvnwax","employment_industry_pxcmvdjn","employment_industry_qnlwzans","employment_industry_rucpziij","employment_industry_saaquncn","employment_industry_vjjrobsf","employment_industry_wlfvacwt","employment_industry_wxleyezf","employment_industry_xicduogh","employment_industry_xqicxuve","employment_industry_nan","census_msa_MSA__Not_Principle__City","census_msa_MSA__Principle_City","census_msa_Non_MSA","employment_status_Employed","employment_status_Not_in_Labor_Force","employment_status_Unemployed","employment_status_nan","rent_or_own_Own","rent_or_own_Rent","rent_or_own_nan","marital_status_Married","marital_status_Not_Married","marital_status_nan","income_poverty_____75_000__Above_Poverty","income_poverty____75_000","income_poverty_Below_Poverty","income_poverty_nan","sex_Female","sex_Male","race_Black","race_Hispanic","race_Other_or_Multiple","race_White","hhs_geo_region_atmpeygn","hhs_geo_region_bhuqouqj","hhs_geo_region_dqpwygqj","hhs_geo_region_fpwskwrf","hhs_geo_region_kbazzjca","hhs_geo_region_lrircsnp","hhs_geo_region_lzgpxyit","hhs_geo_region_mlyzmhmf","hhs_geo_region_oxchjgsf","hhs_geo_region_qufhixun"],"feature_types":["float","float","float","float","float","float","float","float","float","float","float","float","float","float","float","float","float","float","float","float","float","float","float","float","float","float","float","float","float","float","float","float","float","float","float","float","float","float","float","float","float","float","float","float","float","float","float","float","float","float","float","float","float","float","float","float","float","float","float","float","float","float","float","float","float","float","float","float","float","float","float","float","float","float","float","float","float","float","float","float","float","float","float","float","float","float","float","float","float","float","float","float","float","float","float","float","float","float","float","float","float","float","float","float","float","float","float","float","float","float","float"],"gradient_booster":{"model":{"gbtree_model_param":{"num_parallel_tree":"1","num_trees":"200"},"iteration_indptr":[0,1,2,3,4,5,6,7,8,9,10,11,12,13,14,15,16,17,18,19,20,21,22,23,24,25,26,27,28,29,30,31,32,33,34,35,36,37,38,39,40,41,42,43,44,45,46,47,48,49,50,51,52,53,54,55,56,57,58,59,60,61,62,63,64,65,66,67,68,69,70,71,72,73,74,75,76,77,78,79,80,81,82,83,84,85,86,87,88,89,90,91,92,93,94,95,96,97,98,99,100,101,102,103,104,105,106,107,108,109,110,111,112,113,114,115,116,117,118,119,120,121,122,123,124,125,126,127,128,129,130,131,132,133,134,135,136,137,138,139,140,141,142,143,144,145,146,147,148,149,150,151,152,153,154,155,156,157,158,159,160,161,162,163,164,165,166,167,168,169,170,171,172,173,174,175,176,177,178,179,180,181,182,183,184,185,186,187,188,189,190,191,192,193,194,195,196,197,198,199,200],"tree_info":[0,0,0,0,0,0,0,0,0,0,0,0,0,0,0,0,0,0,0,0,0,0,0,0,0,0,0,0,0,0,0,0,0,0,0,0,0,0,0,0,0,0,0,0,0,0,0,0,0,0,0,0,0,0,0,0,0,0,0,0,0,0,0,0,0,0,0,0,0,0,0,0,0,0,0,0,0,0,0,0,0,0,0,0,0,0,0,0,0,0,0,0,0,0,0,0,0,0,0,0,0,0,0,0,0,0,0,0,0,0,0,0,0,0,0,0,0,0,0,0,0,0,0,0,0,0,0,0,0,0,0,0,0,0,0,0,0,0,0,0,0,0,0,0,0,0,0,0,0,0,0,0,0,0,0,0,0,0,0,0,0,0,0,0,0,0,0,0,0,0,0,0,0,0,0,0,0,0,0,0,0,0,0,0,0,0,0,0,0,0,0,0,0,0,0,0,0,0,0,0],"trees":[{"base_weights":[2.3916217E-4,-5.809582E-1,9.7316587E-1,-9.5163184E-1,5.919501E-1,5.29473E-1,1.5836794E0,-1.21015884E-1,-2.2079242E-2,8.76973E-3,1.17941014E-1,-1.2879124E-3,9.685879E-2,1.6679713E-1,8.715134E-2],"categories":[],"categories_nodes":[],"categories_segments":[],"categories_sizes":[],"default_left":[1,1,1,1,0,1,0,0,0,0,0,0,0,0,0],"id":0,"left_children":[1,3,5,7,9,11,13,-1,-1,-1,-1,-1,-1,-1,-1],"loss_changes":[2.1025803E3,1.0126068E3,3.7583472E2,3.3400464E2,1.6566846E2,1.921558E2,3.364868E1,0E0,0E0,0E0,0E0,0E0,0E0,0E0,0E0],"parents":[2147483647,0,0,1,1,2,2,3,3,4,4,5,5,6,6],"right_children":[2,4,6,8,10,12,14,-1,-1,-1,-1,-1,-1,-1,-1],"split_conditions":[5E0,1E0,1E0,3E0,3E0,3E0,1E0,-1.21015884E-1,-2.2079242E-2,8.76973E-3,1.17941014E-1,-1.2879124E-3,9.685879E-2,1.6679713E-1,8.715134E-2],"split_indices":[17,9,9,18,18,18,22,0,0,0,0,0,0,0,0],"split_type":[0,0,0,0,0,0,0,0,0,0,0,0,0,0,0],"sum_hessian":[3.7163381E3,2.3267876E3,1.3895505E3,1.7681793E3,5.586083E2,8.0579987E2,5.837506E2,1.3056597E3,4.6251968E2,3.0121033E2,2.5739792E2,3.6095453E2,4.4484537E2,5.2077026E2,6.2980343E1],"tree_param":{"num_deleted":"0","num_feature":"111","num_nodes":"15","size_leaf_vector":"1"}},{"base_weights":[-1.2264413E-2,-5.841386E-1,7.637963E-1,-8.762174E-1,4.4002146E-1,3.1918025E-1,1.3616508E0,-1.0957984E-1,-4.253585E-3,4.1817436E-3,1.17709E-1,-1.7890805E-2,8.370123E-2,1.0585516E-1,1.5401727E-1],"categories":[],"categories_nodes":[],"categories_segments":[],"categories_sizes":[],"default_left":[1,1,1,0,0,1,0,0,0,0,0,0,0,0,0],"id":1,"left_children":[1,3,5,7,9,11,13,-1,-1,-1,-1,-1,-1,-1,-1],"loss_changes":[1.6436769E3,6.382268E2,4.1723645E2,3.0373376E2,1.39021E2,2.3291046E2,3.461499E1,0E0,0E0,0E0,0E0,0E0,0E0,0E0,0E0],"parents":[2147483647,0,0,1,1,2,2,3,3,4,4,5,5,6,6],"right_children":[2,4,6,8,10,12,14,-1,-1,-1,-1,-1,-1,-1,-1],"split_conditions":[3E0,1E0,1E0,1E0,1E0,5E0,5E0,-1.0957984E-1,-4.253585E-3,4.1817436E-3,1.17709E-1,-1.7890805E-2,8.370123E-2,1.0585516E-1,1.5401727E-1],"split_indices":[18,9,9,26,26,17,17,0,0,0,0,0,0,0,0],"split_type":[0,0,0,0,0,0,0,0,0,0,0,0,0,0,0],"sum_hessian":[3.701562E3,2.1312815E3,1.5702804E3,1.6584537E3,4.7282782E2,9.01432E2,6.6884845E2,1.3124557E3,3.459981E2,3.0766656E2,1.6516125E2,4.59809E2,4.4162302E2,2.504897E2,4.1835873E2],"tree_param":{"num_deleted":"0","num_feature":"111","num_nodes":"15","size_leaf_vector":"1"}},{"base_weights":[-7.3522923E-4,-4.9636343E-1,8.106127E-1,-7.8656715E-1,4.4956318E-1,4.5788935E-1,1.2841624E0,-1.02490485E-1,-2.3084763E-2,-4.6751678E-2,6.670108E-2,6.6862375E-2,-4.982272E-2,1.3616209E-1,6.3653626E-2],"categories":[],"categories_nodes":[],"categories_segments":[],"categories_sizes":[],"default_left":[1,1,1,0,0,0,0,0,0,0,0,0,0,0,0],"id":2,"left_children":[1,3,5,7,9,11,13,-1,-1,-1,-1,-1,-1,-1,-1],"loss_changes":[1.4834363E3,6.2899866E2,2.3307715E2,2.3191772E2,1.07651245E2,1.6218713E2,2.9062378E1,0E0,0E0,0E0,0E0,0E0,0E0,0E0,0E0],"parents":[2147483647,0,0,1,1,2,2,3,3,4,4,5,5,6,6],"right_children":[2,4,6,8,10,12,14,-1,-1,-1,-1,-1,-1,-1,-1],"split_conditions":[5E0,1E0,1E0,3E0,2E0,1E0,1E0,-1.02490485E-1,-2.3084763E-2,-4.6751678E-2,6.670108E-2,6.6862375E-2,-4.982272E-2,1.3616209E-1,6.3653626E-2],"split_indices":[17,9,9,18,18,22,22,0,0,0,0,0,0,0,0],"split_type":[0,0,0,0,0,0,0,0,0,0,0,0,0,0,0],"sum_hessian":[3.6869746E3,2.2890503E3,1.3979242E3,1.7517837E3,5.3726666E2,8.0229895E2,5.9562524E2,1.2253918E3,5.263919E2,1.0275401E2,4.3451263E2,6.576494E2,1.4464958E2,5.310118E2,6.461345E1],"tree_param":{"num_deleted":"0","num_feature":"111","num_nodes":"15","size_leaf_vector":"1"}},{"base_weights":[4.7261743E-3,-4.352601E-1,7.331855E-1,-7.162313E-1,4.2749727E-1,4.0674943E-1,1.191438E0,-9.4846874E-2,-1.7713903E-2,-6.1852437E-2,6.254443E-2,1.3702196E-2,1.0272367E-1,1.2611154E-1,6.13867E-2],"categories":[],"categories_nodes":[],"categories_segments":[],"categories_sizes":[],"default_left":[1,1,1,0,0,0,0,0,0,0,0,0,0,0,0],"id":3,"left_children":[1,3,5,7,9,11,13,-1,-1,-1,-1,-1,-1,-1,-1],"loss_changes":[1.1742406E3,5.5398926E2,2.0588495E2,2.155896E2,1.1669858E2,1.3495003E2,2.2301147E1,0E0,0E0,0E0,0E0,0E0,0E0,0E0,0E0],"parents":[2147483647,0,0,1,1,2,2,3,3,4,4,5,5,6,6],"right_children":[2,4,6,8,10,12,14,-1,-1,-1,-1,-1,-1,-1,-1],"split_conditions":[5E0,1E0,1E0,3E0,3E0,1E0,1E0,-9.4846874E-2,-1.7713903E-2,-6.1852437E-2,6.254443E-2,1.3702196E-2,1.0272367E-1,1.2611154E-1,6.13867E-2],"split_indices":[17,9,9,18,17,26,22,0,0,0,0,0,0,0,0],"split_type":[0,0,0,0,0,0,0,0,0,0,0,0,0,0,0],"sum_hessian":[3.661643E3,2.283077E3,1.378566E3,1.7223387E3,5.607383E2,8.061749E2,5.7239105E2,1.203234E3,5.191047E2,8.888959E1,4.7184872E2,5.627617E2,2.4341321E2,5.0971616E2,6.2674908E1],"tree_param":{"num_deleted":"0","num_feature":"111","num_nodes":"15","size_leaf_vector":"1"}},{"base_weights":[1.800813E-2,-4.0792537E-1,7.032E-1,-6.701787E-1,3.8797128E-1,2.6773307E-1,9.673684E-1,-8.6159155E-2,-8.700579E-3,-3.6847915E-3,8.823561E-2,-9.262363E-3,9.223723E-2,6.496242E-2,1.2745279E-1],"categories":[],"categories_nodes":[],"categories_segments":[],"categories_sizes":[],"default_left":[1,1,0,1,0,0,1,0,0,0,0,0,0,0,0],"id":4,"left_children":[1,3,5,7,9,11,13,-1,-1,-1,-1,-1,-1,-1,-1],"loss_changes":[1.0507076E3,4.636642E2,1.5850055E2,1.8637207E2,1.1573029E2,1.23338646E2,8.2970276E1,0E0,0E0,0E0,0E0,0E0,0E0,0E0,0E0],"parents":[2147483647,0,0,1,1,2,2,3,3,4,4,5,5,6,6],"right_children":[2,4,6,8,10,12,14,-1,-1,-1,-1,-1,-1,-1,-1],"split_conditions":[5E0,1E0,3E0,4E0,3E0,1E0,1E0,-8.6159155E-2,-8.700579E-3,-3.6847915E-3,8.823561E-2,-9.262363E-3,9.223723E-2,6.496242E-2,1.2745279E-1],"split_indices":[17,9,18,18,18,26,13,0,0,0,0,0,0,0,0],"split_type":[0,0,0,0,0,0,0,0,0,0,0,0,0,0,0],"sum_hessian":[3.598228E3,2.21915E3,1.3790781E3,1.6692716E3,5.4987836E2,5.214728E2,8.576053E2,1.2564078E3,4.128638E2,2.962444E2,2.5363394E2,3.3688663E2,1.8458615E2,4.2307065E2,4.3453467E2],"tree_param":{"num_deleted":"0","num_feature":"111","num_nodes":"15","size_leaf_vector":"1"}},{"base_weights":[1.4197505E-3,-4.2144942E-1,5.5610615E-1,-6.78967E-1,3.6613593E-1,2.2388676E-1,1.0236132E0,-8.3285466E-2,-6.8682446E-3,-8.9295775E-2,5.5041887E-2,4.5154344E-2,-6.0180057E-2,7.866987E-2,1.213774E-1],"categories":[],"categories_nodes":[],"categories_segments":[],"categories_sizes":[],"default_left":[1,0,1,1,0,0,1,0,0,0,0,0,0,0,0],"id":5,"left_children":[1,3,5,7,9,11,13,-1,-1,-1,-1,-1,-1,-1,-1],"loss_changes":[8.3394916E2,4.0941223E2,2.3864182E2,1.4275562E2,1.1598317E2,1.6951483E2,2.7816162E1,0E0,0E0,0E0,0E0,0E0,0E0,0E0,0E0],"parents":[2147483647,0,0,1,1,2,2,3,3,4,4,5,5,6,6],"right_children":[2,4,6,8,10,12,14,-1,-1,-1,-1,-1,-1,-1,-1],"split_conditions":[3E0,1E0,1E0,1E0,3E0,1E0,1E0,-8.3285466E-2,-6.8682446E-3,-8.9295775E-2,5.5041887E-2,4.5154344E-2,-6.0180057E-2,7.866987E-2,1.213774E-1],"split_indices":[18,26,9,9,17,22,13,0,0,0,0,0,0,0,0],"split_type":[0,0,0,0,0,0,0,0,0,0,0,0,0,0,0],"sum_hessian":[3.5533809E3,2.0164023E3,1.5369786E3,1.5196566E3,4.967457E2,8.993573E2,6.376214E2,1.2133396E3,3.0631702E2,6.2930958E1,4.3381476E2,7.0533655E2,1.9402072E2,2.8619647E2,3.5142496E2],"tree_param":{"num_deleted":"0","num_feature":"111","num_nodes":"15","size_leaf_vector":"1"}},{"base_weights":[3.7258727E-4,-3.5528535E-1,5.803689E-1,-5.6659424E-1,2.87389E-1,7.18759E-1,-1.922633E-1,-1.0438096E-1,-3.655399E-2,-6.2918626E-2,4.629248E-2,-3.297516E-3,8.2476854E-2,-3.777128E-2,9.054028E-2],"categories":[],"categories_nodes":[],"categories_segments":[],"categories_sizes":[],"default_left":[1,1,0,0,0,1,1,0,0,0,0,0,0,0,0],"id":6,"left_children":[1,3,5,7,9,11,13,-1,-1,-1,-1,-1,-1,-1,-1],"loss_changes":[7.293249E2,2.9779654E2,1.4383878E2,1.5790045E2,8.7650055E1,9.087488E1,4.206038E1,0E0,0E0,0E0,0E0,0E0,0E0,0E0,0E0],"parents":[2147483647,0,0,1,1,2,2,3,3,4,4,5,5,6,6],"right_children":[2,4,6,8,10,12,14,-1,-1,-1,-1,-1,-1,-1,-1],"split_conditions":[5E0,1E0,1E0,2E0,3E0,2E0,1E0,-1.0438096E-1,-3.655399E-2,-6.2918626E-2,4.629248E-2,-3.297516E-3,8.2476854E-2,-3.777128E-2,9.054028E-2],"split_indices":[17,9,22,18,17,18,12,0,0,0,0,0,0,0,0],"split_type":[0,0,0,0,0,0,0,0,0,0,0,0,0,0,0],"sum_hessian":[3.5336023E3,2.1906606E3,1.3429417E3,1.6486945E3,5.4196625E2,1.1389993E3,2.0394235E2,4.8746765E2,1.1612268E3,8.669524E1,4.55271E2,1.4085541E2,9.9814386E2,1.7502754E2,2.8914816E1],"tree_param":{"num_deleted":"0","num_feature":"111","num_nodes":"15","size_leaf_vector":"1"}},{"base_weights":[6.870818E-3,-3.215618E-1,5.329632E-1,-8.8762385E-1,-1.1316287E-1,2.7164254E-1,9.3106353E-1,-1.013322E-1,-4.435013E-2,-2.8881086E-2,5.6853134E-2,4.194166E-2,-3.8175907E-2,7.125249E-2,1.09667175E-1],"categories":[],"categories_nodes":[],"categories_segments":[],"categories_sizes":[],"default_left":[1,0,1,0,0,0,1,0,0,0,0,0,0,0,0],"id":7,"left_children":[1,3,5,7,9,11,13,-1,-1,-1,-1,-1,-1,-1,-1],"loss_changes":[5.9768304E2,2.5112407E2,1.3805557E2,3.153366E1,1.8668161E2,7.779448E1,1.8271637E1,0E0,0E0,0E0,0E0,0E0,0E0,0E0,0E0],"parents":[2147483647,0,0,1,1,2,2,3,3,4,4,5,5,6,6],"right_children":[2,4,6,8,10,12,14,-1,-1,-1,-1,-1,-1,-1,-1],"split_conditions":[5E0,2E0,1E0,1E0,1E0,1E0,1E0,-1.013322E-1,-4.435013E-2,-2.8881086E-2,5.6853134E-2,4.194166E-2,-3.8175907E-2,7.125249E-2,1.09667175E-1],"split_indices":[17,18,9,26,26,22,13,0,0,0,0,0,0,0,0],"split_type":[0,0,0,0,0,0,0,0,0,0,0,0,0,0,0],"sum_hessian":[3.457104E3,2.1286218E3,1.3284822E3,5.719118E2,1.5567101E3,8.0303625E2,5.25446E2,4.447534E2,1.2715839E2,1.2382374E3,3.1847272E2,6.5521106E2,1.478252E2,2.28809E2,2.9663696E2],"tree_param":{"num_deleted":"0","num_feature":"111","num_nodes":"15","size_leaf_vector":"1"}},{"base_weights":[4.814237E-3,-3.3615705E-1,4.5541123E-1,-5.4960513E-1,3.1061512E-1,1.5449308E-1,7.774699E-1,-6.909725E-2,-1.6608447E-3,7.879043E-3,8.1986524E-2,-8.632324E-3,6.046241E-2,-2.5023578E-2,8.707389E-2],"categories":[],"categories_nodes":[],"categories_segments":[],"categories_sizes":[],"default_left":[1,0,1,1,1,1,1,0,0,0,0,0,0,0,0],"id":8,"left_children":[1,3,5,7,9,11,13,-1,-1,-1,-1,-1,-1,-1,-1],"loss_changes":[5.2761475E2,2.700417E2,1.43238E2,1.1076163E2,5.7275394E1,8.30822E1,6.868326E1,0E0,0E0,0E0,0E0,0E0,0E0,0E0,0E0],"parents":[2147483647,0,0,1,1,2,2,3,3,4,4,5,5,6,6],"right_children":[2,4,6,8,10,12,14,-1,-1,-1,-1,-1,-1,-1,-1],"split_conditions":[3E0,1E0,1E0,1E0,1E0,1E0,4E0,-6.909725E-2,-1.6608447E-3,7.879043E-3,8.1986524E-2,-8.632324E-3,6.046241E-2,-2.5023578E-2,8.707389E-2],"split_indices":[18,26,13,9,9,9,17,0,0,0,0,0,0,0,0],"split_type":[0,0,0,0,0,0,0,0,0,0,0,0,0,0,0],"sum_hessian":[3.432087E3,1.953846E3,1.478241E3,1.4691475E3,4.8469855E2,7.649673E2,7.1327374E2,1.1609349E3,3.0821252E2,3.3386752E2,1.5083101E2,4.988793E2,2.6608798E2,5.9206875E1,6.5406683E2],"tree_param":{"num_deleted":"0","num_feature":"111","num_nodes":"15","size_leaf_vector":"1"}},{"base_weights":[1.6432757E-3,-3.0930498E-1,4.116235E-1,-5.015213E-1,2.7101728E-1,1.547483E-1,8.01748E-1,-8.6285464E-2,-2.8871832E-2,-3.983272E-2,4.3810543E-2,6.599631E-2,-1.4427331E-2,5.663682E-2,9.9837266E-2],"categories":[],"categories_nodes":[],"categories_segments":[],"categories_sizes":[],"default_left":[1,0,1,0,0,0,1,0,0,0,0,0,0,0,0],"id":9,"left_children":[1,3,5,7,9,11,13,-1,-1,-1,-1,-1,-1,-1,-1],"loss_changes":[4.3111478E2,2.1465836E2,1.4604747E2,1.1086102E2,5.37625E1,1.3314882E2,2.6225159E1,0E0,0E0,0E0,0E0,0E0,0E0,0E0,0E0],"parents":[2147483647,0,0,1,1,2,2,3,3,4,4,5,5,6,6],"right_children":[2,4,6,8,10,12,14,-1,-1,-1,-1,-1,-1,-1,-1],"split_conditions":[3E0,1E0,1E0,2E0,4E0,2E0,1E0,-8.6285464E-2,-2.8871832E-2,-3.983272E-2,4.3810543E-2,6.599631E-2,-1.4427331E-2,5.663682E-2,9.9837266E-2],"split_indices":[18,26,9,18,17,19,13,0,0,0,0,0,0,0,0],"split_type":[0,0,0,0,0,0,0,0,0,0,0,0,0,0,0],"sum_hessian":[3.3797546E3,1.9221508E3,1.4576039E3,1.444E3,4.7815076E2,8.797405E2,5.7786334E2,5.3408466E2,9.0991534E2,9.524028E1,3.8291046E2,3.266458E2,5.5309467E2,2.647778E2,3.1308557E2],"tree_param":{"num_deleted":"0","num_feature":"111","num_nodes":"15","size_leaf_vector":"1"}},{"base_weights":[2.3578687E-3,-2.663371E-1,4.4325897E-1,-4.5203435E-1,2.6720533E-1,5.569486E-1,-1.6600204E-1,-5.3339332E-2,3.4364637E-2,7.357187E-3,7.511052E-2,7.7503435E-2,3.126368E-2,-3.2800056E-2,9.22929E-2],"categories":[],"categories_nodes":[],"categories_segments":[],"categories_sizes":[],"default_left":[1,1,0,1,0,1,1,0,0,0,0,0,0,0,0],"id":10,"left_children":[1,3,5,7,9,11,13,-1,-1,-1,-1,-1,-1,-1,-1],"loss_changes":[3.9535822E2,2.0556584E2,8.762346E1,9.978473E1,5.016725E1,5.6511963E1,3.5494534E1,0E0,0E0,0E0,0E0,0E0,0E0,0E0,0E0],"parents":[2147483647,0,0,1,1,2,2,3,3,4,4,5,5,6,6],"right_children":[2,4,6,8,10,12,14,-1,-1,-1,-1,-1,-1,-1,-1],"split_conditions":[5E0,1E0,1E0,1E0,1E0,2E0,1E0,-5.3339332E-2,3.4364637E-2,7.357187E-3,7.511052E-2,7.7503435E-2,3.126368E-2,-3.2800056E-2,9.22929E-2],"split_indices":[17,9,22,12,26,19,12,0,0,0,0,0,0,0,0],"split_type":[0,0,0,0,0,0,0,0,0,0,0,0,0,0,0],"sum_hessian":[3.3352637E3,2.072582E3,1.2626818E3,1.5375847E3,5.3499725E2,1.0641876E3,1.9849416E2,1.395249E3,1.4233568E2,3.8292224E2,1.5207504E2,5.61125E2,5.0306253E2,1.7339696E2,2.50972E1],"tree_param":{"num_deleted":"0","num_feature":"111","num_nodes":"15","size_leaf_vector":"1"}},{"base_weights":[-8.836679E-3,-6.43603E-1,1.6079158E-1,-8.223785E-1,-1.6320457E-1,-1.9436006E-2,6.7526597E-1,-8.3882965E-2,1.661837E-1,-4.3451473E-2,3.8021337E-2,-1.4136835E-2,7.599729E-2,9.373145E-2,4.6284653E-2],"categories":[],"categories_nodes":[],"categories_segments":[],"categories_sizes":[],"default_left":[0,0,0,0,0,1,0,0,0,0,0,0,0,0,0],"id":11,"left_children":[1,3,5,7,9,11,13,-1,-1,-1,-1,-1,-1,-1,-1],"loss_changes":[3.5399298E2,5.9407227E1,2.4057085E2,2.2032745E1,2.807072E1,1.8279266E2,3.7033356E1,0E0,0E0,0E0,0E0,0E0,0E0,0E0,0E0],"parents":[2147483647,0,0,1,1,2,2,3,3,4,4,5,5,6,6],"right_children":[2,4,6,8,10,12,14,-1,-1,-1,-1,-1,-1,-1,-1],"split_conditions":[2E0,1E0,1E0,1E0,5E0,1E0,2E0,-8.3882965E-2,1.661837E-1,-4.3451473E-2,3.8021337E-2,-1.4136835E-2,7.599729E-2,9.373145E-2,4.6284653E-2],"split_indices":[18,26,26,35,17,12,19,0,0,0,0,0,0,0,0],"split_type":[0,0,0,0,0,0,0,0,0,0,0,0,0,0,0],"sum_hessian":[3.285666E3,6.922819E2,2.5933843E3,5.0400836E2,1.8827356E2,1.9212913E3,6.7209296E2,5.0135062E2,2.6577349E0,1.2571081E2,6.2562748E1,1.6620891E3,2.5920206E2,2.9936844E2,3.7272452E2],"tree_param":{"num_deleted":"0","num_feature":"111","num_nodes":"15","size_leaf_vector":"1"}},{"base_weights":[-2.4558422E-3,-2.7745658E-1,3.5639635E-1,-4.4672716E-1,2.1225314E-1,4.9881628E-1,-2.3978125E-1,-8.841061E-2,-3.1739917E-2,-3.3946566E-3,5.9133362E-2,2.4040064E-2,7.753839E-2,-5.0626844E-2,3.5945937E-2],"categories":[],"categories_nodes":[],"categories_segments":[],"categories_sizes":[],"default_left":[1,0,0,0,0,1,1,0,0,0,0,0,0,0,0],"id":12,"left_children":[1,3,5,7,9,11,13,-1,-1,-1,-1,-1,-1,-1,-1],"loss_changes":[3.2275943E2,1.535832E2,1.2060161E2,7.757208E1,4.447316E1,8.169528E1,4.398327E1,0E0,0E0,0E0,0E0,0E0,0E0,0E0,0E0],"parents":[2147483647,0,0,1,1,2,2,3,3,4,4,5,5,6,6],"right_children":[2,4,6,8,10,12,14,-1,-1,-1,-1,-1,-1,-1,-1],"split_conditions":[3E0,1E0,1E0,4E0,5E0,1E0,1E0,-8.841061E-2,-3.1739917E-2,-3.3946566E-3,5.9133362E-2,2.4040064E-2,7.753839E-2,-5.0626844E-2,3.5945937E-2],"split_indices":[18,26,22,17,17,13,9,0,0,0,0,0,0,0,0],"split_type":[0,0,0,0,0,0,0,0,0,0,0,0,0,0,0],"sum_hessian":[3.2686133E3,1.850635E3,1.4179783E3,1.3753324E3,4.7530264E2,1.1446887E3,2.7328958E2,3.125323E2,1.0628E3,2.8870752E2,1.8659512E2,5.9273035E2,5.519584E2,1.8927335E2,8.401625E1],"tree_param":{"num_deleted":"0","num_feature":"111","num_nodes":"15","size_leaf_vector":"1"}},{"base_weights":[1.3961856E-3,-2.0059408E-1,4.6923068E-1,-4.0109918E-1,1.9116358E-1,-3.1971526E-1,5.659605E-1,-7.820201E-2,-2.636448E-2,-3.6928426E-2,3.290698E-2,-4.1660838E-2,6.327566E-2,7.739282E-2,3.9684866E-2],"categories":[],"categories_nodes":[],"categories_segments":[],"categories_sizes":[],"default_left":[1,1,0,0,0,0,0,0,0,0,0,0,0,0,0],"id":13,"left_children":[1,3,5,7,9,11,13,-1,-1,-1,-1,-1,-1,-1,-1],"loss_changes":[3.0556796E2,1.7747928E2,7.459616E1,7.802997E1,5.9268364E1,1.0151026E1,3.0254486E1,0E0,0E0,0E0,0E0,0E0,0E0,0E0,0E0],"parents":[2147483647,0,0,1,1,2,2,3,3,4,4,5,5,6,6],"right_children":[2,4,6,8,10,12,14,-1,-1,-1,-1,-1,-1,-1,-1],"split_conditions":[1E0,5E0,4E0,2E0,1E0,5E0,2E0,-7.820201E-2,-2.636448E-2,-3.6928426E-2,3.290698E-2,-4.1660838E-2,6.327566E-2,7.739282E-2,3.9684866E-2],"split_indices":[9,17,17,18,100,18,19,0,0,0,0,0,0,0,0],"split_type":[0,0,0,0,0,0,0,0,0,0,0,0,0,0,0],"sum_hessian":[3.2315952E3,2.2574844E3,9.741108E2,1.4932181E3,7.642663E2,1.0613656E2,8.679742E2,3.9470398E2,1.0985142E3,1.5059079E2,6.136755E2,9.68471E1,9.289465E0,3.876634E2,4.8031082E2],"tree_param":{"num_deleted":"0","num_feature":"111","num_nodes":"15","size_leaf_vector":"1"}},{"base_weights":[4.8585553E-3,-1.8195719E-1,4.283027E-1,-8.0670303E-1,-8.4361546E-2,-2.4757782E-1,5.1433927E-1,-8.167153E-2,7.276073E-2,-1.59598E-2,6.8405345E-2,1.9552086E-2,-4.9664404E-2,6.392556E-2,1.8479818E-2],"categories":[],"categories_nodes":[],"categories_segments":[],"categories_sizes":[],"default_left":[1,0,0,0,0,0,0,0,0,0,0,0,0,0,0],"id":14,"left_children":[1,3,5,7,9,11,13,-1,-1,-1,-1,-1,-1,-1,-1],"loss_changes":[2.531006E2,1.3529565E2,5.7082565E1,5.2003326E0,1.1118149E2,1.2377548E1,3.566133E1,0E0,0E0,0E0,0E0,0E0,0E0,0E0,0E0],"parents":[2147483647,0,0,1,1,2,2,3,3,4,4,5,5,6,6],"right_children":[2,4,6,8,10,12,14,-1,-1,-1,-1,-1,-1,-1,-1],"split_conditions":[1E0,3E0,4E0,1E0,1E0,1E0,1E0,-8.167153E-2,7.276073E-2,-1.59598E-2,6.8405345E-2,1.9552086E-2,-4.9664404E-2,6.392556E-2,1.8479818E-2],"split_indices":[9,17,17,35,60,8,21,0,0,0,0,0,0,0,0],"split_type":[0,0,0,0,0,0,0,0,0,0,0,0,0,0,0],"sum_hessian":[3.1975254E3,2.2190789E3,9.7844635E2,2.9883835E2,1.9202406E3,1.10275276E2,8.681711E2,2.9736557E2,1.4727869E0,1.7497161E3,1.7052454E2,3.975844E1,7.051684E1,6.288562E2,2.3931488E2],"tree_param":{"num_deleted":"0","num_feature":"111","num_nodes":"15","size_leaf_vector":"1"}},{"base_weights":[3.6156483E-3,-2.1167126E-1,3.5267133E-1,-6.9992065E-1,-9.7960666E-2,4.8213163E-1,-8.977865E-2,-7.450525E-2,1.9935703E-2,-2.3017712E-2,3.5420086E-2,-1.6412703E-2,5.854416E-2,5.5605615E-3,-9.0391956E-2],"categories":[],"categories_nodes":[],"categories_segments":[],"categories_sizes":[],"default_left":[1,0,0,1,0,0,0,0,0,0,0,0,0,0,0],"id":15,"left_children":[1,3,5,7,9,11,13,-1,-1,-1,-1,-1,-1,-1,-1],"loss_changes":[2.3420824E2,1.069568E2,6.814595E1,1.4921219E1,9.362642E1,6.151779E1,3.2005875E1,0E0,0E0,0E0,0E0,0E0,0E0,0E0,0E0],"parents":[2147483647,0,0,1,1,2,2,3,3,4,4,5,5,6,6],"right_children":[2,4,6,8,10,12,14,-1,-1,-1,-1,-1,-1,-1,-1],"split_conditions":[5E0,3E0,1E0,5E0,1E0,2E0,1E0,-7.450525E-2,1.9935703E-2,-2.3017712E-2,3.5420086E-2,-1.6412703E-2,5.854416E-2,5.5605615E-3,-9.0391956E-2],"split_indices":[17,17,86,18,26,18,98,0,0,0,0,0,0,0,0],"split_type":[0,0,0,0,0,0,0,0,0,0,0,0,0,0,0],"sum_hessian":[3.1146694E3,1.9267206E3,1.187949E3,3.629848E2,1.5637357E3,9.1896985E2,2.6897913E2,3.4580167E2,1.7183147E1,1.2103179E3,3.5341785E2,1.265767E2,7.923932E2,2.2901477E2,3.9964344E1],"tree_param":{"num_deleted":"0","num_feature":"111","num_nodes":"15","size_leaf_vector":"1"}},{"base_weights":[1.0720586E-2,-4.96306E-1,1.3860464E-1,-6.582169E-1,-6.942456E-2,4.7327647E-1,-6.853003E-2,-6.7832015E-2,1.364551E-1,-2.700041E-2,3.480753E-2,-5.055799E-2,5.4220267E-2,-2.7982343E-2,1.9418808E-2],"categories":[],"categories_nodes":[],"categories_segments":[],"categories_sizes":[],"default_left":[0,0,0,0,1,0,1,0,0,0,0,0,0,0,0],"id":16,"left_children":[1,3,5,7,9,11,13,-1,-1,-1,-1,-1,-1,-1,-1],"loss_changes":[2.021806E2,4.336357E1,1.7264444E2,1.9437256E1,1.4650524E1,6.450865E1,8.548159E1,0E0,0E0,0E0,0E0,0E0,0E0,0E0,0E0],"parents":[2147483647,0,0,1,1,2,2,3,3,4,4,5,5,6,6],"right_children":[2,4,6,8,10,12,14,-1,-1,-1,-1,-1,-1,-1,-1],"split_conditions":[2E0,1E0,2E0,1E0,1E0,3E0,1E0,-6.7832015E-2,1.364551E-1,-2.700041E-2,3.480753E-2,-5.055799E-2,5.4220267E-2,-2.7982343E-2,1.9418808E-2],"split_indices":[18,26,19,35,10,17,13,0,0,0,0,0,0,0,0],"split_type":[0,0,0,0,0,0,0,0,0,0,0,0,0,0,0],"sum_hessian":[3.1160557E3,6.270574E2,2.4889983E3,4.5423117E2,1.7282623E2,9.5106226E2,1.537936E3,4.504193E2,3.811833E0,1.16979195E2,5.5847042E1,6.214688E1,8.8891534E2,8.52356E2,6.855801E2],"tree_param":{"num_deleted":"0","num_feature":"111","num_nodes":"15","size_leaf_vector":"1"}},{"base_weights":[-6.788795E-3,-2.0666109E-1,2.8384653E-1,-3.573935E-1,2.0194195E-1,3.8041967E-1,-4.2121652E-1,-3.77951E-2,2.083367E-1,2.9837785E-2,-3.7634637E-2,1.706127E-2,6.0524773E-2,-6.4588755E-2,4.8823044E-2],"categories":[],"categories_nodes":[],"categories_segments":[],"categories_sizes":[],"default_left":[1,0,0,0,1,1,0,0,0,0,0,0,0,0,0],"id":17,"left_children":[1,3,5,7,9,11,13,-1,-1,-1,-1,-1,-1,-1,-1],"loss_changes":[1.803616E2,1.13377235E2,8.630674E1,6.823749E1,2.7795595E1,5.2411255E1,3.1555048E1,0E0,0E0,0E0,0E0,0E0,0E0,0E0,0E0],"parents":[2147483647,0,0,1,1,2,2,3,3,4,4,5,5,6,6],"right_children":[2,4,6,8,10,12,14,-1,-1,-1,-1,-1,-1,-1,-1],"split_conditions":[4E0,1E0,1E0,1E0,3E0,1E0,1E0,-3.77951E-2,2.083367E-1,2.9837785E-2,-3.7634637E-2,1.706127E-2,6.0524773E-2,-6.4588755E-2,4.8823044E-2],"split_indices":[18,26,93,35,19,13,26,0,0,0,0,0,0,0,0],"split_type":[0,0,0,0,0,0,0,0,0,0,0,0,0,0,0],"sum_hessian":[3.1028577E3,1.8386748E3,1.2641829E3,1.3432715E3,4.9540338E2,1.1122916E3,1.5189117E2,1.3328903E3,1.0381226E1,4.2501202E2,7.0391365E1,5.762762E2,5.3601544E2,1.2203362E2,2.9857553E1],"tree_param":{"num_deleted":"0","num_feature":"111","num_nodes":"15","size_leaf_vector":"1"}},{"base_weights":[6.482578E-3,-1.5428695E-1,3.8202965E-1,-6.432342E-1,-4.8557043E-2,1.6283321E-1,6.3353497E-1,-7.495908E-2,-2.8880006E-2,-1.3412701E-2,6.465598E-2,2.3637375E-2,-5.8558352E-2,6.834505E-2,1.1000204E-2],"categories":[],"categories_nodes":[],"categories_segments":[],"categories_sizes":[],"default_left":[1,0,0,0,1,0,0,0,0,0,0,0,0,0,0],"id":18,"left_children":[1,3,5,7,9,11,13,-1,-1,-1,-1,-1,-1,-1,-1],"loss_changes":[1.8685423E2,1.1200116E2,5.1040955E1,1.4304916E1,1.0613588E2,2.7495146E1,1.120546E1,0E0,0E0,0E0,0E0,0E0,0E0,0E0,0E0],"parents":[2147483647,0,0,1,1,2,2,3,3,4,4,5,5,6,6],"right_children":[2,4,6,8,10,12,14,-1,-1,-1,-1,-1,-1,-1,-1],"split_conditions":[1E0,4E0,5E0,1E0,1E0,1E0,1E0,-7.495908E-2,-2.8880006E-2,-1.3412701E-2,6.465598E-2,2.3637375E-2,-5.8558352E-2,6.834505E-2,1.1000204E-2],"split_indices":[9,17,17,26,12,97,28,0,0,0,0,0,0,0,0],"split_type":[0,0,0,0,0,0,0,0,0,0,0,0,0,0,0],"sum_hessian":[3.0928398E3,2.166124E3,9.26716E2,3.8421957E2,1.7819043E3,4.9604306E2,4.3067294E2,2.9467905E2,8.954051E1,1.5873109E3,1.9459341E2,4.5228506E2,4.375802E1,3.9290637E2,3.7766552E1],"tree_param":{"num_deleted":"0","num_feature":"111","num_nodes":"15","size_leaf_vector":"1"}},{"base_weights":[-1.0939234E-2,-1.8549016E-1,2.7769473E-1,-5.891107E-1,-9.622618E-2,-1.7424083E-1,3.8993585E-1,-7.515643E-2,-3.6311843E-2,-1.671246E-2,4.5808993E-2,-3.922921E-2,3.3863153E-2,2.411206E-2,6.575336E-2],"categories":[],"categories_nodes":[],"categories_segments":[],"categories_sizes":[],"default_left":[1,0,0,0,1,1,1,0,0,0,0,0,0,0,0],"id":19,"left_children":[1,3,5,7,9,11,13,-1,-1,-1,-1,-1,-1,-1,-1],"loss_changes":[1.5389673E2,6.852272E1,5.8461082E1,1.2375984E1,6.138203E1,2.582182E1,3.6575623E1,0E0,0E0,0E0,0E0,0E0,0E0,0E0,0E0],"parents":[2147483647,0,0,1,1,2,2,3,3,4,4,5,5,6,6],"right_children":[2,4,6,8,10,12,14,-1,-1,-1,-1,-1,-1,-1,-1],"split_conditions":[5E0,3E0,1E0,4E0,1E0,1E0,1E0,-7.515643E-2,-3.6311843E-2,-1.671246E-2,4.5808993E-2,-3.922921E-2,3.3863153E-2,2.411206E-2,6.575336E-2],"split_indices":[17,17,100,14,12,10,9,0,0,0,0,0,0,0,0],"split_type":[0,0,0,0,0,0,0,0,0,0,0,0,0,0,0],"sum_hessian":[3.0526157E3,1.9024622E3,1.1501537E3,3.4353183E2,1.5589303E3,2.2870947E2,9.214442E2,1.9850891E2,1.4502292E2,1.3827692E3,1.7616115E2,1.6064517E2,6.80643E1,5.933656E2,3.280786E2],"tree_param":{"num_deleted":"0","num_feature":"111","num_nodes":"15","size_leaf_vector":"1"}},{"base_weights":[-7.8110085E-3,-1.9008546E-1,2.3459454E-1,-3.1325042E-1,1.3334756E-1,3.6325413E-1,-2.5085005E-1,-3.3345323E-2,1.6232117E-1,-1.7771726E-2,3.197163E-2,1.5319489E-2,6.1639816E-2,-4.810534E-2,2.0553557E-2],"categories":[],"categories_nodes":[],"categories_segments":[],"categories_sizes":[],"default_left":[0,0,0,0,0,1,1,0,0,0,0,0,0,0,0],"id":20,"left_children":[1,3,5,7,9,11,13,-1,-1,-1,-1,-1,-1,-1,-1],"loss_changes":[1.3307263E2,6.852223E1,8.082784E1,4.925904E1,2.7582088E1,5.426436E1,2.8614336E1,0E0,0E0,0E0,0E0,0E0,0E0,0E0,0E0],"parents":[2147483647,0,0,1,1,2,2,3,3,4,4,5,5,6,6],"right_children":[2,4,6,8,10,12,14,-1,-1,-1,-1,-1,-1,-1,-1],"split_conditions":[4E0,1E0,1E0,1E0,2E0,1E0,2E0,-3.3345323E-2,1.6232117E-1,-1.7771726E-2,3.197163E-2,1.5319489E-2,6.1639816E-2,-4.810534E-2,2.0553557E-2],"split_indices":[18,26,22,35,18,13,1,0,0,0,0,0,0,0,0],"split_type":[0,0,0,0,0,0,0,0,0,0,0,0,0,0,0],"sum_hessian":[3.009751E3,1.7180763E3,1.2916746E3,1.2442797E3,4.7379666E2,1.0212577E3,2.7041687E2,1.2322516E3,1.2028079E1,1.775303E2,2.9626636E2,5.590022E2,4.6225552E2,1.7971408E2,9.070279E1],"tree_param":{"num_deleted":"0","num_feature":"111","num_nodes":"15","size_leaf_vector":"1"}},{"base_weights":[8.090791E-3,-1.676582E-1,2.8265128E-1,-3.032548E-1,1.1367729E-1,1.0270099E-1,4.9409738E-1,-4.0387295E-2,1.4460104E-3,2.6668882E-2,-3.6095258E-2,2.2329388E-2,-2.9207224E-2,-4.636084E-3,5.83941E-2],"categories":[],"categories_nodes":[],"categories_segments":[],"categories_sizes":[],"default_left":[0,1,1,1,0,0,1,0,0,0,0,0,0,0,0],"id":21,"left_children":[1,3,5,7,9,11,13,-1,-1,-1,-1,-1,-1,-1,-1],"loss_changes":[1.4302902E2,6.897911E1,4.396653E1,3.8999794E1,4.283552E1,2.9877798E1,2.5840256E1,0E0,0E0,0E0,0E0,0E0,0E0,0E0,0E0],"parents":[2147483647,0,0,1,1,2,2,3,3,4,4,5,5,6,6],"right_children":[2,4,6,8,10,12,14,-1,-1,-1,-1,-1,-1,-1,-1],"split_conditions":[5E0,4E0,1E0,1E0,1E0,1E0,2E0,-4.0387295E-2,1.4460104E-3,2.6668882E-2,-3.6095258E-2,2.2329388E-2,-2.9207224E-2,-4.636084E-3,5.83941E-2],"split_indices":[17,18,13,9,22,86,18,0,0,0,0,0,0,0,0],"split_type":[0,0,0,0,0,0,0,0,0,0,0,0,0,0,0],"sum_hessian":[2.9621208E3,1.8062871E3,1.1558336E3,1.2187854E3,5.875018E2,6.252247E2,5.30609E2,9.254353E2,2.9335013E2,4.446071E2,1.4289465E2,4.7925818E2,1.4596646E2,7.57023E1,4.549067E2],"tree_param":{"num_deleted":"0","num_feature":"111","num_nodes":"15","size_leaf_vector":"1"}},{"base_weights":[8.679004E-3,-3.9086547E-1,1.0479322E-1,-4.472555E-1,2.3106998E-1,4.058287E-1,-7.459994E-2,-5.4431427E-2,-1.2982355E-2,5.1190734E-2,-3.5918165E-2,5.186897E-2,-1.0321153E-2,-7.1805634E-4,-5.8597773E-2],"categories":[],"categories_nodes":[],"categories_segments":[],"categories_sizes":[],"default_left":[0,1,0,0,0,0,0,0,0,0,0,0,0,0,0],"id":22,"left_children":[1,3,5,7,9,11,13,-1,-1,-1,-1,-1,-1,-1,-1],"loss_changes":[1.1364284E2,2.0228767E1,1.2884999E2,1.6150108E1,8.200928E0,5.123436E1,5.1556576E1,0E0,0E0,0E0,0E0,0E0,0E0,0E0,0E0],"parents":[2147483647,0,0,1,1,2,2,3,3,4,4,5,5,6,6],"right_children":[2,4,6,8,10,12,14,-1,-1,-1,-1,-1,-1,-1,-1],"split_conditions":[2E0,3E0,2E0,1E0,4E0,1E0,1E0,-5.4431427E-2,-1.2982355E-2,5.1190734E-2,-3.5918165E-2,5.186897E-2,-1.0321153E-2,-7.1805634E-4,-5.8597773E-2],"split_indices":[18,15,19,10,16,22,93,0,0,0,0,0,0,0,0],"split_type":[0,0,0,0,0,0,0,0,0,0,0,0,0,0,0],"sum_hessian":[2.9572356E3,5.7284906E2,2.3843865E3,5.25485E2,4.73641E1,8.89864E2,1.4945225E3,4.0188797E2,1.23597E2,3.218395E1,1.5180153E1,7.2835834E2,1.6150565E2,1.3213336E3,1.7318883E2],"tree_param":{"num_deleted":"0","num_feature":"111","num_nodes":"15","size_leaf_vector":"1"}},{"base_weights":[2.0633654E-3,-3.914025E-1,9.798242E-2,-5.1206917E-1,-1.1643692E-1,3.6781192E-1,-6.6485204E-2,-5.5547427E-2,3.657053E-2,7.1416533E-4,-7.591211E-2,4.7428533E-2,-9.589138E-3,-1.7767092E-2,3.0839344E-2],"categories":[],"categories_nodes":[],"categories_segments":[],"categories_sizes":[],"default_left":[0,0,0,0,0,0,0,0,0,0,0,0,0,0,0],"id":23,"left_children":[1,3,5,7,9,11,13,-1,-1,-1,-1,-1,-1,-1,-1],"loss_changes":[1.1227457E2,1.9286331E1,1.0616777E2,1.5631493E1,1.4232317E1,4.477259E1,6.2029213E1,0E0,0E0,0E0,0E0,0E0,0E0,0E0,0E0],"parents":[2147483647,0,0,1,1,2,2,3,3,4,4,5,5,6,6],"right_children":[2,4,6,8,10,12,14,-1,-1,-1,-1,-1,-1,-1,-1],"split_conditions":[2E0,1E0,2E0,1E0,3E0,1E0,1E0,-5.5547427E-2,3.657053E-2,7.1416533E-4,-7.591211E-2,4.7428533E-2,-9.589138E-3,-1.7767092E-2,3.0839344E-2],"split_indices":[18,26,19,34,16,86,26,0,0,0,0,0,0,0,0],"split_type":[0,0,0,0,0,0,0,0,0,0,0,0,0,0,0],"sum_hessian":[2.9728638E3,5.8207513E2,2.3907886E3,4.0394467E2,1.7813045E2,9.0491956E2,1.485869E3,3.8526105E2,1.868361E1,1.5023196E2,2.789848E1,7.359186E2,1.6900102E2,1.1463867E3,3.394822E2],"tree_param":{"num_deleted":"0","num_feature":"111","num_nodes":"15","size_leaf_vector":"1"}},{"base_weights":[-4.076266E-3,-1.2975793E-1,2.920178E-1,-1.9711725E-1,4.5850036E-1,-2.556706E-1,3.4962985E-1,-3.0571545E-2,1.0643474E-2,5.430437E-2,-6.687031E-2,-5.3112842E-2,6.9618793E-3,2.3610443E-2,5.9818577E-2],"categories":[],"categories_nodes":[],"categories_segments":[],"categories_sizes":[],"default_left":[1,1,0,0,1,0,0,0,0,0,0,0,0,0,0],"id":24,"left_children":[1,3,5,7,9,11,13,-1,-1,-1,-1,-1,-1,-1,-1],"loss_changes":[1.0900515E2,8.1571075E1,2.76307E1,6.0877747E1,2.0525211E1,7.5327106E0,2.2155952E1,0E0,0E0,0E0,0E0,0E0,0E0,0E0,0E0],"parents":[2147483647,0,0,1,1,2,2,3,3,4,4,5,5,6,6],"right_children":[2,4,6,8,10,12,14,-1,-1,-1,-1,-1,-1,-1,-1],"split_conditions":[1E0,1E0,3E0,1E0,5E0,4E0,1E0,-3.0571545E-2,1.0643474E-2,5.430437E-2,-6.687031E-2,-5.3112842E-2,6.9618793E-3,2.3610443E-2,5.9818577E-2],"split_indices":[9,12,17,26,19,14,26,0,0,0,0,0,0,0,0],"split_type":[0,0,0,0,0,0,0,0,0,0,0,0,0,0,0],"sum_hessian":[2.9271575E3,2.055311E3,8.7184644E2,1.8447412E3,2.1056978E2,8.265448E1,7.8919196E2,1.3586619E3,4.8607935E2,1.9636044E2,1.4209325E1,4.441267E1,3.8241806E1,5.4309064E2,2.4610127E2],"tree_param":{"num_deleted":"0","num_feature":"111","num_nodes":"15","size_leaf_vector":"1"}},{"base_weights":[-1.3110938E-2,7.9122335E-2,-3.3699265E-1,-8.664367E-2,2.9571548E-1,-3.7660593E-1,1.6777033E0,-6.058585E-5,-5.329367E-2,1.1075438E-2,5.096494E-2,-5.2967884E-2,8.843913E-4,1.9063859E-1,9.379511E-3],"categories":[],"categories_nodes":[],"categories_segments":[],"categories_sizes":[],"default_left":[0,1,0,1,1,1,0,0,0,0,0,0,0,0,0],"id":25,"left_children":[1,3,5,7,9,11,13,-1,-1,-1,-1,-1,-1,-1,-1],"loss_changes":[8.561828E1,8.012481E1,5.133226E1,4.855494E1,3.8223717E1,3.6812515E1,4.3246956E0,0E0,0E0,0E0,0E0,0E0,0E0,0E0,0E0],"parents":[2147483647,0,0,1,1,2,2,3,3,4,4,5,5,6,6],"right_children":[2,4,6,8,10,12,14,-1,-1,-1,-1,-1,-1,-1,-1],"split_conditions":[1E0,3E0,1E0,3E0,1E0,1E0,1E0,-6.058585E-5,-5.329367E-2,1.1075438E-2,5.096494E-2,-5.2967884E-2,8.843913E-4,1.9063859E-1,9.379511E-3],"split_indices":[86,18,35,19,13,9,107,0,0,0,0,0,0,0,0],"split_type":[0,0,0,0,0,0,0,0,0,0,0,0,0,0,0],"sum_hessian":[2.8642148E3,2.2299402E3,6.3427454E2,1.2635233E3,9.664169E2,6.2284125E2,1.14333315E1,1.0601462E3,2.0337708E2,5.191191E2,4.472978E2,4.455333E2,1.7730792E2,9.812953E0,1.6203778E0],"tree_param":{"num_deleted":"0","num_feature":"111","num_nodes":"15","size_leaf_vector":"1"}},{"base_weights":[-2.7486897E-4,-5.043836E-1,6.0139112E-2,-5.5324656E-1,2.5747398E-1,-5.090236E-2,3.168171E-1,-5.7195216E-2,1.1257883E-1,5.9364714E-2,-8.850403E-2,-2.0229401E-2,1.9356733E-2,4.1877683E-2,5.6010275E-3],"categories":[],"categories_nodes":[],"categories_segments":[],"categories_sizes":[],"default_left":[0,1,1,0,0,0,0,0,0,0,0,0,0,0,0],"id":26,"left_children":[1,3,5,7,9,11,13,-1,-1,-1,-1,-1,-1,-1,-1],"loss_changes":[8.6971634E1,1.1519386E1,7.26992E1,9.673836E0,7.8621545E0,6.5951775E1,2.0457672E1,0E0,0E0,0E0,0E0,0E0,0E0,0E0,0E0],"parents":[2147483647,0,0,1,1,2,2,3,3,4,4,5,5,6,6],"right_children":[2,4,6,8,10,12,14,-1,-1,-1,-1,-1,-1,-1,-1],"split_conditions":[3E0,5E0,1E0,1E0,1E0,1E0,1E0,-5.7195216E-2,1.1257883E-1,5.9364714E-2,-8.850403E-2,-2.0229401E-2,1.9356733E-2,4.1877683E-2,5.6010275E-3],"split_indices":[17,18,9,35,28,29,21,0,0,0,0,0,0,0,0],"split_type":[0,0,0,0,0,0,0,0,0,0,0,0,0,0,0],"sum_hessian":[2.853726E3,3.04613E2,2.549113E3,2.86511E2,1.8102016E1,1.7799084E3,7.692045E2,2.8400635E2,2.504665E0,1.4357788E1,3.7442293E0,1.0993138E3,6.805946E2,5.5257526E2,2.1662926E2],"tree_param":{"num_deleted":"0","num_feature":"111","num_nodes":"15","size_leaf_vector":"1"}},{"base_weights":[8.4295245E-3,-1.27581E-1,2.1699217E-1,-7.945672E-2,-7.736326E-1,-1.8209386E-1,3.1880152E-1,9.731885E-4,-4.0871035E-2,-9.535793E-2,-8.492363E-3,-3.2892738E-2,2.0242024E-2,1.6797414E-2,4.9016174E-2],"categories":[],"categories_nodes":[],"categories_segments":[],"categories_sizes":[],"default_left":[0,0,0,0,1,1,1,0,0,0,0,0,0,0,0],"id":27,"left_children":[1,3,5,7,9,11,13,-1,-1,-1,-1,-1,-1,-1,-1],"loss_changes":[8.094323E1,5.3637733E1,4.582069E1,4.724018E1,1.4744041E1,1.3027643E1,2.3120567E1,0E0,0E0,0E0,0E0,0E0,0E0,0E0,0E0],"parents":[2147483647,0,0,1,1,2,2,3,3,4,4,5,5,6,6],"right_children":[2,4,6,8,10,12,14,-1,-1,-1,-1,-1,-1,-1,-1],"split_conditions":[5E0,5E0,1E0,1E0,5E0,1E0,1E0,9.731885E-4,-4.0871035E-2,-9.535793E-2,-8.492363E-3,-3.2892738E-2,2.0242024E-2,1.6797414E-2,4.9016174E-2],"split_indices":[17,19,100,86,18,10,13,0,0,0,0,0,0,0,0],"split_type":[0,0,0,0,0,0,0,0,0,0,0,0,0,0,0],"sum_hessian":[2.851482E3,1.726175E3,1.1253069E3,1.6075518E3,1.1862331E2,2.2856366E2,8.967432E2,1.2656748E3,3.4187695E2,9.374493E1,2.4878382E1,1.6550659E2,6.305706E1,4.7799927E2,4.1874396E2],"tree_param":{"num_deleted":"0","num_feature":"111","num_nodes":"15","size_leaf_vector":"1"}},{"base_weights":[-8.997207E-3,-1.0188924E-1,2.558612E-1,-1.8002647E-1,4.091331E-1,3.4987193E-1,-7.365077E-2,-2.9034838E-2,1.0437414E-2,4.80553E-2,-5.6241967E-2,-1.8615968E-3,4.2316783E-2,-4.7174137E-2,2.198085E-2],"categories":[],"categories_nodes":[],"categories_segments":[],"categories_sizes":[],"default_left":[0,1,1,0,0,0,0,0,0,0,0,0,0,0,0],"id":28,"left_children":[1,3,5,7,9,11,13,-1,-1,-1,-1,-1,-1,-1,-1],"loss_changes":[6.975642E1,8.3886215E1,2.2831528E1,5.717503E1,1.960767E1,1.5482681E1,1.9291101E1,0E0,0E0,0E0,0E0,0E0,0E0,0E0,0E0],"parents":[2147483647,0,0,1,1,2,2,3,3,4,4,5,5,6,6],"right_children":[2,4,6,8,10,12,14,-1,-1,-1,-1,-1,-1,-1,-1],"split_conditions":[1E0,1E0,3E0,1E0,5E0,1E0,4E0,-2.9034838E-2,1.0437414E-2,4.80553E-2,-5.6241967E-2,-1.8615968E-3,4.2316783E-2,-4.7174137E-2,2.198085E-2],"split_indices":[26,12,19,25,19,1,18,0,0,0,0,0,0,0,0],"split_type":[0,0,0,0,0,0,0,0,0,0,0,0,0,0,0],"sum_hessian":[2.8331943E3,2.0979941E3,7.3520026E2,1.8203097E3,2.7768445E2,5.7195734E2,1.632429E2,1.311532E3,5.0877768E2,2.5914017E2,1.8544292E1,9.501664E1,4.769407E2,6.901434E1,9.422856E1],"tree_param":{"num_deleted":"0","num_feature":"111","num_nodes":"15","size_leaf_vector":"1"}},{"base_weights":[-7.93735E-3,-1.14126295E-1,2.472876E-1,-1.7609437E-1,4.165951E-1,1.03311196E-1,4.2816183E-1,-7.976461E-2,-1.2860501E-2,4.7870528E-2,-6.604092E-2,1.820852E-3,4.2599108E-2,6.2132813E-2,2.3837011E-2],"categories":[],"categories_nodes":[],"categories_segments":[],"categories_sizes":[],"default_left":[1,1,0,0,1,0,0,0,0,0,0,0,0,0,0],"id":29,"left_children":[1,3,5,7,9,11,13,-1,-1,-1,-1,-1,-1,-1,-1],"loss_changes":[7.604041E1,6.523376E1,2.1423672E1,5.228571E1,1.4193043E1,1.2633057E1,1.3235085E1,0E0,0E0,0E0,0E0,0E0,0E0,0E0,0E0],"parents":[2147483647,0,0,1,1,2,2,3,3,4,4,5,5,6,6],"right_children":[2,4,6,8,10,12,14,-1,-1,-1,-1,-1,-1,-1,-1],"split_conditions":[1E0,1E0,1E0,1E0,1E0,1E0,1E0,-7.976461E-2,-1.2860501E-2,4.7870528E-2,-6.604092E-2,1.820852E-3,4.2599108E-2,6.2132813E-2,2.3837011E-2],"split_indices":[9,12,82,13,8,60,8,0,0,0,0,0,0,0,0],"split_type":[0,0,0,0,0,0,0,0,0,0,0,0,0,0,0],"sum_hessian":[2.8036638E3,1.9802949E3,8.23369E2,1.7738453E3,2.064495E2,4.5932007E2,3.6404895E2,1.2478851E2,1.6490569E3,1.9571808E2,1.0731415E1,3.6429767E2,9.50224E1,1.7929366E2,1.8475531E2],"tree_param":{"num_deleted":"0","num_feature":"111","num_nodes":"15","size_leaf_vector":"1"}},{"base_weights":[-4.4139946E-4,-1.1392822E-1,2.0470242E-1,-2.3960398E-1,1.9121434E-1,-1.200357E-2,4.4118807E-1,-2.5839975E-2,1.5309352E-1,-2.1329157E-2,2.7094264E-2,3.5265193E-3,-9.238794E-2,2.6571838E-2,6.565451E-2],"categories":[],"categories_nodes":[],"categories_segments":[],"categories_sizes":[],"default_left":[1,0,0,0,0,0,1,0,0,0,0,0,0,0,0],"id":30,"left_children":[1,3,5,7,9,11,13,-1,-1,-1,-1,-1,-1,-1,-1],"loss_changes":[6.480018E1,6.8768005E1,5.0810276E1,4.264966E1,1.6934942E1,2.237241E1,1.7740059E1,0E0,0E0,0E0,0E0,0E0,0E0,0E0,0E0],"parents":[2147483647,0,0,1,1,2,2,3,3,4,4,5,5,6,6],"right_children":[2,4,6,8,10,12,14,-1,-1,-1,-1,-1,-1,-1,-1],"split_conditions":[2E0,1E0,3E0,1E0,4E0,5E0,1E0,-2.5839975E-2,1.5309352E-1,-2.1329157E-2,2.7094264E-2,3.5265193E-3,-9.238794E-2,2.6571838E-2,6.565451E-2],"split_indices":[1,26,18,35,17,19,13,0,0,0,0,0,0,0,0],"split_type":[0,0,0,0,0,0,0,0,0,0,0,0,0,0,0],"sum_hessian":[2.7813772E3,1.7910192E3,9.9035815E2,1.2687058E3,5.2231335E2,5.172866E2,4.7307153E2,1.256224E3,1.2481816E1,8.5722145E1,4.3659122E2,4.9270752E2,2.4579077E1,2.619073E2,2.1116426E2],"tree_param":{"num_deleted":"0","num_feature":"111","num_nodes":"15","size_leaf_vector":"1"}},{"base_weights":[3.5759031E-3,7.1613766E-2,-2.6740843E-1,2.4183418E-1,-6.1552726E-2,-3.1756526E-1,1.785034E0,-1.2861118E-2,3.9399248E-2,-2.2466825E-2,9.35317E-3,-4.226282E-2,1.50781395E-2,1.9977084E-1,2.284755E-2],"categories":[],"categories_nodes":[],"categories_segments":[],"categories_sizes":[],"default_left":[0,0,0,1,0,0,0,0,0,0,0,0,0,0,0],"id":31,"left_children":[1,3,5,7,9,11,13,-1,-1,-1,-1,-1,-1,-1,-1],"loss_changes":[5.1327785E1,5.0454563E1,5.8082195E1,5.511544E1,3.1623495E1,2.6941261E1,4.0055847E0,0E0,0E0,0E0,0E0,0E0,0E0,0E0,0E0],"parents":[2147483647,0,0,1,1,2,2,3,3,4,4,5,5,6,6],"right_children":[2,4,6,8,10,12,14,-1,-1,-1,-1,-1,-1,-1,-1],"split_conditions":[1E0,2E0,1E0,2E0,3E0,1E0,3E0,-1.2861118E-2,3.9399248E-2,-2.2466825E-2,9.35317E-3,-4.226282E-2,1.50781395E-2,1.9977084E-1,2.284755E-2],"split_indices":[22,19,35,18,18,12,16,0,0,0,0,0,0,0,0],"split_type":[0,0,0,0,0,0,0,0,0,0,0,0,0,0,0],"sum_hessian":[2.7818875E3,2.2241826E3,5.5770483E2,9.7590875E2,1.2482739E3,5.452261E2,1.2478764E1,2.8418506E2,6.917237E2,6.081656E2,6.4010834E2,4.4540677E2,9.9819275E1,1.0729382E1,1.7493814E0],"tree_param":{"num_deleted":"0","num_feature":"111","num_nodes":"15","size_leaf_vector":"1"}},{"base_weights":[-2.0735026E-3,-1.0963484E-1,1.9356781E-1,-2.0724408E-1,1.3115586E-1,-9.12331E-2,2.9531938E-1,-2.2714764E-2,1.5730493E-1,-4.1476722E-4,3.6373485E-2,-2.7284403E-3,-1.0881239E-1,1.34768775E-2,4.9803257E-2],"categories":[],"categories_nodes":[],"categories_segments":[],"categories_sizes":[],"default_left":[1,0,0,0,0,1,1,0,0,0,0,0,0,0,0],"id":32,"left_children":[1,3,5,7,9,11,13,-1,-1,-1,-1,-1,-1,-1,-1],"loss_changes":[5.7870857E1,4.1733162E1,2.829855E1,4.511139E1,1.6127533E1,1.6390192E1,2.3334042E1,0E0,0E0,0E0,0E0,0E0,0E0,0E0,0E0],"parents":[2147483647,0,0,1,1,2,2,3,3,4,4,5,5,6,6],"right_children":[2,4,6,8,10,12,14,-1,-1,-1,-1,-1,-1,-1,-1],"split_conditions":[2E0,1E0,2E0,1E0,4E0,5E0,1E0,-2.2714764E-2,1.5730493E-1,-4.1476722E-4,3.6373485E-2,-2.7284403E-3,-1.0881239E-1,1.34768775E-2,4.9803257E-2],"split_indices":[1,26,15,35,18,19,13,0,0,0,0,0,0,0,0],"split_type":[0,0,0,0,0,0,0,0,0,0,0,0,0,0,0],"sum_hessian":[2.7480576E3,1.7734661E3,9.7459155E2,1.2620205E3,5.1144547E2,2.565673E2,7.1802423E2,1.24893E3,1.3090539E1,3.2396182E2,1.8748363E2,2.4206656E2,1.45007515E1,4.0161026E2,3.1641397E2],"tree_param":{"num_deleted":"0","num_feature":"111","num_nodes":"15","size_leaf_vector":"1"}},{"base_weights":[5.327402E-3,-1.021089E-1,1.9606842E-1,-1.9636628E-1,1.3216704E-1,-2.1591061E-1,2.813691E-1,-3.1083701E-2,1.0613555E-2,3.0162027E-2,-2.806932E-3,-2.8524294E-2,7.3165834E-2,1.1800597E-2,4.711141E-2],"categories":[],"categories_nodes":[],"categories_segments":[],"categories_sizes":[],"default_left":[1,0,0,0,1,1,1,0,0,0,0,0,0,0,0],"id":33,"left_children":[1,3,5,7,9,11,13,-1,-1,-1,-1,-1,-1,-1,-1],"loss_changes":[5.638418E1,3.88931E1,3.4899437E1,4.350897E1,1.3736241E1,1.1417918E1,2.5416382E1,0E0,0E0,0E0,0E0,0E0,0E0,0E0,0E0],"parents":[2147483647,0,0,1,1,2,2,3,3,4,4,5,5,6,6],"right_children":[2,4,6,8,10,12,14,-1,-1,-1,-1,-1,-1,-1,-1],"split_conditions":[2E0,1E0,2E0,1E0,2E0,4E0,1E0,-3.1083701E-2,1.0613555E-2,3.0162027E-2,-2.806932E-3,-2.8524294E-2,7.3165834E-2,1.1800597E-2,4.711141E-2],"split_indices":[1,26,18,25,19,15,13,0,0,0,0,0,0,0,0],"split_type":[0,0,0,0,0,0,0,0,0,0,0,0,0,0,0],"sum_hessian":[2.7494758E3,1.7591091E3,9.903667E2,1.2545298E3,5.0457925E2,1.6961948E2,8.2074725E2,9.101061E2,3.4442377E2,2.4480772E2,2.5977155E2,1.5870615E2,1.091334E1,4.4190558E2,3.7884164E2],"tree_param":{"num_deleted":"0","num_feature":"111","num_nodes":"15","size_leaf_vector":"1"}},{"base_weights":[1.9935674E-3,7.410131E-2,-2.5491622E-1,2.5033036E-2,5.224973E-1,-4.4193506E-1,-1.4363227E-2,-2.8045652E-2,7.919831E-3,-2.0054705E-2,5.9587862E-2,-5.837962E-2,-2.0583807E-2,-5.602143E-3,1.2975734E-1],"categories":[],"categories_nodes":[],"categories_segments":[],"categories_sizes":[],"default_left":[0,1,1,0,0,0,0,0,0,0,0,0,0,0,0],"id":34,"left_children":[1,3,5,7,9,11,13,-1,-1,-1,-1,-1,-1,-1,-1],"loss_changes":[5.120558E1,4.7473904E1,2.72467E1,3.22302E1,1.141222E1,1.1293671E1,1.4610513E1,0E0,0E0,0E0,0E0,0E0,0E0,0E0,0E0],"parents":[2147483647,0,0,1,1,2,2,3,3,4,4,5,5,6,6],"right_children":[2,4,6,8,10,12,14,-1,-1,-1,-1,-1,-1,-1,-1],"split_conditions":[1E0,5E0,1E0,4E0,1E0,1E0,1E0,-2.8045652E-2,7.919831E-3,-2.0054705E-2,5.9587862E-2,-5.837962E-2,-2.0583807E-2,-5.602143E-3,1.2975734E-1],"split_indices":[86,18,13,17,1,9,35,0,0,0,0,0,0,0,0],"split_type":[0,0,0,0,0,0,0,0,0,0,0,0,0,0,0],"sum_hessian":[2.762087E3,2.1573013E3,6.047855E2,1.9454637E3,2.1183759E2,3.3978287E2,2.6500266E2,2.9236447E2,1.6530992E3,1.9358677E1,1.924789E2,2.1133034E2,1.2845255E2,2.5777478E2,7.227877E0],"tree_param":{"num_deleted":"0","num_feature":"111","num_nodes":"15","size_leaf_vector":"1"}},{"base_weights":[-2.4970347E-2,-1.2748665E-1,1.4718771E-1,-9.504802E-2,-6.690048E-1,1.2291373E-2,3.5881308E-1,-1.4748103E-2,3.0865747E-2,-7.962583E-2,-2.3923008E-2,1.7196577E-2,-1.8241724E-2,2.6286399E-2,7.329438E-2],"categories":[],"categories_nodes":[],"categories_segments":[],"categories_sizes":[],"default_left":[1,1,0,1,0,1,1,0,0,0,0,0,0,0,0],"id":35,"left_children":[1,3,5,7,9,11,13,-1,-1,-1,-1,-1,-1,-1,-1],"loss_changes":[4.795059E1,2.9847017E1,2.8945368E1,3.407599E1,5.0635796E0,1.931819E1,1.3977413E1,0E0,0E0,0E0,0E0,0E0,0E0,0E0,0E0],"parents":[2147483647,0,0,1,1,2,2,3,3,4,4,5,5,6,6],"right_children":[2,4,6,8,10,12,14,-1,-1,-1,-1,-1,-1,-1,-1],"split_conditions":[5E0,5E0,2E0,1E0,5E0,5E0,5E0,-1.4748103E-2,3.0865747E-2,-7.962583E-2,-2.3923008E-2,1.7196577E-2,-1.8241724E-2,2.6286399E-2,7.329438E-2],"split_indices":[17,19,1,12,18,14,18,0,0,0,0,0,0,0,0],"split_type":[0,0,0,0,0,0,0,0,0,0,0,0,0,0,0],"sum_hessian":[2.714837E3,1.701745E3,1.013092E3,1.6066757E3,9.506938E1,6.193548E2,3.9373715E2,1.4225504E3,1.8412526E2,7.2692795E1,2.2376585E1,3.4035623E2,2.789986E2,3.1472562E2,7.901154E1],"tree_param":{"num_deleted":"0","num_feature":"111","num_nodes":"15","size_leaf_vector":"1"}},{"base_weights":[-1.3841876E-3,-5.0950766E-1,3.376146E-2,-6.2183195E-1,-1.2529624E-1,-3.2906425E-1,7.362557E-2,-4.246942E-2,-8.3271496E-2,-5.021217E-2,4.2959906E-2,-3.827991E-2,4.5859907E-2,1.0269607E-2,-3.842223E-2],"categories":[],"categories_nodes":[],"categories_segments":[],"categories_sizes":[],"default_left":[0,0,0,0,0,1,1,0,0,0,0,0,0,0,0],"id":36,"left_children":[1,3,5,7,9,11,13,-1,-1,-1,-1,-1,-1,-1,-1],"loss_changes":[4.8302982E1,7.473587E0,3.6615196E1,5.264717E0,8.754397E0,1.0783186E1,3.0388882E1,0E0,0E0,0E0,0E0,0E0,0E0,0E0,0E0],"parents":[2147483647,0,0,1,1,2,2,3,3,4,4,5,5,6,6],"right_children":[2,4,6,8,10,12,14,-1,-1,-1,-1,-1,-1,-1,-1],"split_conditions":[1E0,1E0,3E0,1E0,1E0,5E0,5E0,-4.246942E-2,-8.3271496E-2,-5.021217E-2,4.2959906E-2,-3.827991E-2,4.5859907E-2,1.0269607E-2,-3.842223E-2],"split_indices":[13,10,17,86,9,18,19,0,0,0,0,0,0,0,0],"split_type":[0,0,0,0,0,0,0,0,0,0,0,0,0,0,0],"sum_hessian":[2.7028242E3,1.7398033E2,2.528844E3,1.3414465E2,3.9835682E1,2.4962369E2,2.2792202E3,7.0889534E1,6.325512E1,2.3781166E1,1.6054516E1,2.3416298E2,1.546072E1,2.1438733E3,1.3534695E2],"tree_param":{"num_deleted":"0","num_feature":"111","num_nodes":"15","size_leaf_vector":"1"}},{"base_weights":[1.827009E-2,-2.5853422E-1,8.2140364E-2,-3.786232E-1,3.7218202E-2,2.8031144E-1,-3.3734355E-2,-4.877097E-2,-2.8506662E-3,1.7743107E-2,-4.122274E-2,2.9973028E-2,-8.6446844E-2,1.5516905E-3,-4.638704E-2],"categories":[],"categories_nodes":[],"categories_segments":[],"categories_sizes":[],"default_left":[0,0,0,0,0,0,0,0,0,0,0,0,0,0,0],"id":37,"left_children":[1,3,5,7,9,11,13,-1,-1,-1,-1,-1,-1,-1,-1],"loss_changes":[4.788619E1,1.805019E1,5.0540455E1,1.3783688E1,9.372216E0,1.8311176E1,2.9443174E1,0E0,0E0,0E0,0E0,0E0,0E0,0E0,0E0],"parents":[2147483647,0,0,1,1,2,2,3,3,4,4,5,5,6,6],"right_children":[2,4,6,8,10,12,14,-1,-1,-1,-1,-1,-1,-1,-1],"split_conditions":[2E0,2E0,2E0,1E0,3E0,1E0,1E0,-4.877097E-2,-2.8506662E-3,1.7743107E-2,-4.122274E-2,2.9973028E-2,-8.6446844E-2,1.5516905E-3,-4.638704E-2],"split_indices":[18,15,19,10,16,45,28,0,0,0,0,0,0,0,0],"split_type":[0,0,0,0,0,0,0,0,0,0,0,0,0,0,0],"sum_hessian":[2.7063599E3,5.0682175E2,2.199538E3,3.602597E2,1.4656206E2,8.110487E2,1.3884894E3,2.7437814E2,8.588156E1,1.12172874E2,3.438918E1,7.982463E2,1.28024235E1,1.2467037E3,1.4178564E2],"tree_param":{"num_deleted":"0","num_feature":"111","num_nodes":"15","size_leaf_vector":"1"}},{"base_weights":[1.2111997E-3,6.885963E-2,-2.3720866E-1,2.673034E-2,4.4548002E-1,-2.6381347E-1,1.0975943E0,-6.0209194E-3,2.4323193E-2,2.2802277E-2,5.7869412E-2,-4.919217E-2,-1.0477638E-2,1.3353224E-1,1.7542697E-2],"categories":[],"categories_nodes":[],"categories_segments":[],"categories_sizes":[],"default_left":[0,0,0,1,0,0,0,0,0,0,0,0,0,0,0],"id":38,"left_children":[1,3,5,7,9,11,13,-1,-1,-1,-1,-1,-1,-1,-1],"loss_changes":[4.343424E1,3.327253E1,2.1426853E1,3.554715E1,5.979931E0,2.1148674E1,2.3581944E0,0E0,0E0,0E0,0E0,0E0,0E0,0E0,0E0],"parents":[2147483647,0,0,1,1,2,2,3,3,4,4,5,5,6,6],"right_children":[2,4,6,8,10,12,14,-1,-1,-1,-1,-1,-1,-1,-1],"split_conditions":[1E0,1E0,1E0,1E0,2E0,1E0,3E0,-6.0209194E-3,2.4323193E-2,2.2802277E-2,5.7869412E-2,-4.919217E-2,-1.0477638E-2,1.3353224E-1,1.7542697E-2],"split_indices":[86,60,35,9,1,95,16,0,0,0,0,0,0,0,0],"split_type":[0,0,0,0,0,0,0,0,0,0,0,0,0,0,0],"sum_hessian":[2.6909604E3,2.0967478E3,5.9421277E2,1.8867627E3,2.0998499E2,5.8338727E2,1.08255005E1,1.3466976E3,5.400651E2,8.079985E1,1.2918513E2,2.387923E2,3.44595E2,8.250544E0,2.5749567E0],"tree_param":{"num_deleted":"0","num_feature":"111","num_nodes":"15","size_leaf_vector":"1"}},{"base_weights":[-3.220192E-3,-8.050924E-2,1.8387578E-1,-5.704085E-1,-4.705118E-2,3.5325673E-1,5.8112465E-2,-6.514385E-2,2.998148E-4,-2.23328E-2,4.6665384E-3,4.896694E-2,-4.779907E-4,-4.053705E-3,5.299991E-2],"categories":[],"categories_nodes":[],"categories_segments":[],"categories_sizes":[],"default_left":[1,0,0,0,1,1,1,0,0,0,0,0,0,0,0],"id":39,"left_children":[1,3,5,7,9,11,13,-1,-1,-1,-1,-1,-1,-1,-1],"loss_changes":[3.8975327E1,3.1236534E1,1.676403E1,5.6632957E0,2.9523426E1,1.6390808E1,2.1127296E1,0E0,0E0,0E0,0E0,0E0,0E0,0E0,0E0],"parents":[2147483647,0,0,1,1,2,2,3,3,4,4,5,5,6,6],"right_children":[2,4,6,8,10,12,14,-1,-1,-1,-1,-1,-1,-1,-1],"split_conditions":[1E0,1E0,1E0,1E0,1E0,4E0,5E0,-6.514385E-2,2.998148E-4,-2.23328E-2,4.6665384E-3,4.896694E-2,-4.779907E-4,-4.053705E-3,5.299991E-2],"split_indices":[9,13,8,109,7,16,18,0,0,0,0,0,0,0,0],"split_type":[0,0,0,0,0,0,0,0,0,0,0,0,0,0,0],"sum_hessian":[2.6932776E3,1.906341E3,7.8693665E2,1.2084577E2,1.7854952E3,3.345492E2,4.5238745E2,1.0576384E2,1.5081932E1,6.192776E2,1.1662177E3,2.4198483E2,9.256437E1,3.7492267E2,7.7464775E1],"tree_param":{"num_deleted":"0","num_feature":"111","num_nodes":"15","size_leaf_vector":"1"}},{"base_weights":[1.0148312E-2,-9.119544E-2,1.4207694E-1,-1.053375E-1,1.3965048E0,2.5568223E-1,-7.31077E-2,-4.9777883E-3,-3.6054786E-2,1.5550458E-1,2.4163797E-2,1.1978731E-2,4.300091E-2,-2.2307305E-2,1.7674437E-2],"categories":[],"categories_nodes":[],"categories_segments":[],"categories_sizes":[],"default_left":[0,0,0,0,0,1,0,0,0,0,0,0,0,0,0],"id":40,"left_children":[1,3,5,7,9,11,13,-1,-1,-1,-1,-1,-1,-1,-1],"loss_changes":[3.6162716E1,3.2331554E1,2.8743517E1,2.1481789E1,2.2745094E0,1.8172062E1,1.5281096E1,0E0,0E0,0E0,0E0,0E0,0E0,0E0,0E0],"parents":[2147483647,0,0,1,1,2,2,3,3,4,4,5,5,6,6],"right_children":[2,4,6,8,10,12,14,-1,-1,-1,-1,-1,-1,-1,-1],"split_conditions":[4E0,1E0,1E0,1E0,1E0,1E0,1E0,-4.9777883E-3,-3.6054786E-2,1.5550458E-1,2.4163797E-2,1.1978731E-2,4.300091E-2,-2.2307305E-2,1.7674437E-2],"split_indices":[18,35,21,22,104,13,29,0,0,0,0,0,0,0,0],"split_type":[0,0,0,0,0,0,0,0,0,0,0,0,0,0,0],"sum_hessian":[2.7027678E3,1.5287416E3,1.1740262E3,1.5152666E3,1.3474908E1,7.6824713E2,4.0577914E2,1.2453479E3,2.6991876E2,1.1543669E1,1.931239E0,4.3265897E2,3.355882E2,2.536446E2,1.5213452E2],"tree_param":{"num_deleted":"0","num_feature":"111","num_nodes":"15","size_leaf_vector":"1"}},{"base_weights":[-9.161992E-3,7.432861E-2,-1.9753852E-1,1.3359E-1,-3.0077803E-1,-3.564194E-1,4.2830344E-2,2.5121698E-3,3.080943E-2,-3.6308885E-2,1.2695658E-1,-3.7602916E-2,1.01453E-1,-5.8071204E-2,1.17100105E-2],"categories":[],"categories_nodes":[],"categories_segments":[],"categories_sizes":[],"default_left":[0,0,0,1,0,0,1,0,0,0,0,0,0,0,0],"id":41,"left_children":[1,3,5,7,9,11,13,-1,-1,-1,-1,-1,-1,-1,-1],"loss_changes":[4.188631E1,4.106278E1,3.1249538E1,3.0170298E1,2.5126972E1,1.3621937E1,1.5181886E1,0E0,0E0,0E0,0E0,0E0,0E0,0E0,0E0],"parents":[2147483647,0,0,1,1,2,2,3,3,4,4,5,5,6,6],"right_children":[2,4,6,8,10,12,14,-1,-1,-1,-1,-1,-1,-1,-1],"split_conditions":[1E0,1E0,1E0,4E0,1E0,1E0,3E0,2.5121698E-3,3.080943E-2,-3.6308885E-2,1.2695658E-1,-3.7602916E-2,1.01453E-1,-5.8071204E-2,1.17100105E-2],"split_indices":[21,22,29,18,35,35,17,0,0,0,0,0,0,0,0],"split_type":[0,0,0,0,0,0,0,0,0,0,0,0,0,0,0],"sum_hessian":[2.6612903E3,1.8444255E3,8.1686475E2,1.5933442E3,2.5108134E2,4.9150388E2,3.2536087E2,9.832932E2,6.10051E2,2.4223819E2,8.843162E0,4.8528815E2,6.215731E0,3.3903152E1,2.9145773E2],"tree_param":{"num_deleted":"0","num_feature":"111","num_nodes":"15","size_leaf_vector":"1"}},{"base_weights":[5.4004067E-3,-1.0175608E-1,1.300384E-1,-1.6088608E-1,1.939878E-1,8.515953E-2,5.477498E-1,-2.484108E-2,6.4083557E-3,4.476507E-2,6.301912E-3,1.1593123E-2,-6.361591E-2,6.692691E-2,-9.775104E-3],"categories":[],"categories_nodes":[],"categories_segments":[],"categories_sizes":[],"default_left":[1,0,1,1,0,1,0,0,0,0,0,0,0,0,0],"id":42,"left_children":[1,3,5,7,9,11,13,-1,-1,-1,-1,-1,-1,-1,-1],"loss_changes":[3.5384613E1,2.4944166E1,2.2913383E1,2.3404173E1,7.8729067E0,2.4647835E1,9.371532E0,0E0,0E0,0E0,0E0,0E0,0E0,0E0,0E0],"parents":[2147483647,0,0,1,1,2,2,3,3,4,4,5,5,6,6],"right_children":[2,4,6,8,10,12,14,-1,-1,-1,-1,-1,-1,-1,-1],"split_conditions":[1E0,1E0,5E0,1E0,2E0,5E0,1E0,-2.484108E-2,6.4083557E-3,4.476507E-2,6.301912E-3,1.1593123E-2,-6.361591E-2,6.692691E-2,-9.775104E-3],"split_indices":[13,12,18,10,19,19,28,0,0,0,0,0,0,0,0],"split_type":[0,0,0,0,0,0,0,0,0,0,0,0,0,0,0],"sum_hessian":[2.6473975E3,1.4236283E3,1.2237692E3,1.1867997E3,2.368286E2,1.1061305E3,1.1763865E2,8.543209E2,3.3247876E2,7.98178E1,1.5701079E2,1.0616782E3,4.4452263E1,9.897013E1,1.866852E1],"tree_param":{"num_deleted":"0","num_feature":"111","num_nodes":"15","size_leaf_vector":"1"}},{"base_weights":[1.2119469E-2,-4.8833363E-2,1.8937735E-1,-1.4338349E-1,1.9415955E-1,2.6200303E-1,-7.732113E-2,-2.440515E-2,7.817402E-3,1.3052354E-2,6.33659E-2,2.7340189E-2,-1.3753152E-1,-1.928352E-2,5.1777888E-2],"categories":[],"categories_nodes":[],"categories_segments":[],"categories_sizes":[],"default_left":[0,0,1,0,1,0,0,0,0,0,0,0,0,0,0],"id":43,"left_children":[1,3,5,7,9,11,13,-1,-1,-1,-1,-1,-1,-1,-1],"loss_changes":[2.8660585E1,4.538233E1,1.3167051E1,3.1728096E1,1.5394495E1,1.033683E1,1.0139336E1,0E0,0E0,0E0,0E0,0E0,0E0,0E0,0E0],"parents":[2147483647,0,0,1,1,2,2,3,3,4,4,5,5,6,6],"right_children":[2,4,6,8,10,12,14,-1,-1,-1,-1,-1,-1,-1,-1],"split_conditions":[1E0,1E0,3E0,1E0,1E0,1E0,5E0,-2.440515E-2,7.817402E-3,1.3052354E-2,6.33659E-2,2.7340189E-2,-1.3753152E-1,-1.928352E-2,5.1777888E-2],"split_indices":[26,25,19,92,12,76,18,0,0,0,0,0,0,0,0],"split_type":[0,0,0,0,0,0,0,0,0,0,0,0,0,0,0],"sum_hessian":[2.6508286E3,1.9730795E3,6.77749E2,1.4206898E3,5.523897E2,5.32704E2,1.4504504E2,9.767755E2,4.4391425E2,4.83657E2,6.87327E1,5.298482E2,2.8557343E0,1.2203328E2,2.3011755E1],"tree_param":{"num_deleted":"0","num_feature":"111","num_nodes":"15","size_leaf_vector":"1"}},{"base_weights":[1.8847832E-2,-6.485672E-2,1.4880674E-1,-4.1576537E-1,-1.5083439E-2,-2.8651866E-1,1.9620353E-1,-2.8176725E-2,-7.676698E-2,-5.2619E-2,1.6581089E-3,8.341161E-3,-6.319621E-2,2.260355E-2,-3.4591008E-2],"categories":[],"categories_nodes":[],"categories_segments":[],"categories_sizes":[],"default_left":[0,0,0,0,0,1,0,0,0,0,0,0,0,0,0],"id":44,"left_children":[1,3,5,7,9,11,13,-1,-1,-1,-1,-1,-1,-1,-1],"loss_changes":[2.867279E1,2.7997948E1,2.136104E1,9.173813E0,2.2750933E1,1.3060435E1,1.5147079E1,0E0,0E0,0E0,0E0,0E0,0E0,0E0,0E0],"parents":[2147483647,0,0,1,1,2,2,3,3,4,4,5,5,6,6],"right_children":[2,4,6,8,10,12,14,-1,-1,-1,-1,-1,-1,-1,-1],"split_conditions":[5E0,3E0,1E0,3E0,1E0,2E0,1E0,-2.8176725E-2,-7.676698E-2,-5.2619E-2,1.6581089E-3,8.341161E-3,-6.319621E-2,2.260355E-2,-3.4591008E-2],"split_indices":[17,14,1,16,13,19,83,0,0,0,0,0,0,0,0],"split_type":[0,0,0,0,0,0,0,0,0,0,0,0,0,0,0],"sum_hessian":[2.633927E3,1.6023674E3,1.0315596E3,1.9813495E2,1.4042325E3,1.0078983E2,9.307698E2,1.4479907E2,5.3335884E1,8.100991E1,1.3232225E3,4.9036217E1,5.1753616E1,8.8277454E2,4.7995186E1],"tree_param":{"num_deleted":"0","num_feature":"111","num_nodes":"15","size_leaf_vector":"1"}},{"base_weights":[-9.732786E-3,-3.4875107E-1,2.7971886E-2,-3.9535207E-1,3.9814723E-1,-6.679301E-3,3.696629E-1,-4.1765314E-2,1.1053868E-1,1.4738034E-1,9.033687E-3,-1.6603364E-3,1.1654311E-1,2.7735868E-2,8.690779E-2],"categories":[],"categories_nodes":[],"categories_segments":[],"categories_sizes":[],"default_left":[0,0,0,0,0,0,0,0,0,0,0,0,0,0,0],"id":45,"left_children":[1,3,5,7,9,11,13,-1,-1,-1,-1,-1,-1,-1,-1],"loss_changes":[3.3569828E1,9.306053E0,2.798761E1,8.758755E0,5.1428223E0,2.4993061E1,9.791927E0,0E0,0E0,0E0,0E0,0E0,0E0,0E0,0E0],"parents":[2147483647,0,0,1,1,2,2,3,3,4,4,5,5,6,6],"right_children":[2,4,6,8,10,12,14,-1,-1,-1,-1,-1,-1,-1,-1],"split_conditions":[3E0,1E0,1E0,1E0,2E0,1E0,5E0,-4.1765314E-2,1.1053868E-1,1.4738034E-1,9.033687E-3,-1.6603364E-3,1.1654311E-1,2.7735868E-2,8.690779E-2],"split_indices":[17,3,60,50,14,35,18,0,0,0,0,0,0,0,0],"split_type":[0,0,0,0,0,0,0,0,0,0,0,0,0,0,0],"sum_hessian":[2.6244553E3,2.618454E2,2.3626099E3,2.4691066E2,1.4934738E1,2.145966E3,2.1664384E2,2.4400642E2,2.9042454E0,2.480056E0,1.2454682E1,2.1289265E3,1.703943E1,1.8416159E2,3.248225E1],"tree_param":{"num_deleted":"0","num_feature":"111","num_nodes":"15","size_leaf_vector":"1"}},{"base_weights":[-3.150628E-2,-1.3791233E-1,9.37468E-2,-3.3283243E-1,-4.8748914E-2,-2.115006E-2,2.578106E-1,-3.842778E-2,2.7086686E-3,-2.029846E-4,-4.0918794E-2,-3.6497493E-3,1.1906018E-1,-3.409499E-2,3.1466585E-2],"categories":[],"categories_nodes":[],"categories_segments":[],"categories_sizes":[],"default_left":[1,0,0,0,0,0,0,0,0,0,0,0,0,0,0],"id":46,"left_children":[1,3,5,7,9,11,13,-1,-1,-1,-1,-1,-1,-1,-1],"loss_changes":[3.499168E1,2.4653004E1,2.274081E1,8.256294E0,1.6419092E1,1.325232E1,1.7020882E1,0E0,0E0,0E0,0E0,0E0,0E0,0E0,0E0],"parents":[2147483647,0,0,1,1,2,2,3,3,4,4,5,5,6,6],"right_children":[2,4,6,8,10,12,14,-1,-1,-1,-1,-1,-1,-1,-1],"split_conditions":[1E0,1E0,3E0,1E0,1E0,1E0,1E0,-3.842778E-2,2.7086686E-3,-2.029846E-4,-4.0918794E-2,-3.6497493E-3,1.1906018E-1,-3.409499E-2,3.1466585E-2],"split_indices":[13,7,18,87,93,35,1,0,0,0,0,0,0,0,0],"split_type":[0,0,0,0,0,0,0,0,0,0,0,0,0,0,0],"sum_hessian":[2.6235178E3,1.4184247E3,1.2050931E3,4.443339E2,9.740908E2,7.0925793E2,4.9583517E2,3.8870612E2,5.562779E1,8.632097E2,1.1088112E2,7.01345E2,7.9129987E0,4.2565697E1,4.532695E2],"tree_param":{"num_deleted":"0","num_feature":"111","num_nodes":"15","size_leaf_vector":"1"}},{"base_weights":[1.5792975E-2,-4.7551066E-2,1.7000556E-1,-8.400532E-2,3.175745E-1,2.6236296E-1,-3.363382E-2,-1.730506E-2,6.679409E-3,-5.443845E-2,4.151248E-2,-7.827579E-3,3.4076016E-2,-9.7721955E-3,4.2147018E-2],"categories":[],"categories_nodes":[],"categories_segments":[],"categories_sizes":[],"default_left":[1,0,0,0,0,0,0,0,0,0,0,0,0,0,0],"id":47,"left_children":[1,3,5,7,9,11,13,-1,-1,-1,-1,-1,-1,-1,-1],"loss_changes":[2.5492756E1,2.4651602E1,1.4299255E1,2.2609528E1,1.436491E1,1.3989571E1,6.981921E0,0E0,0E0,0E0,0E0,0E0,0E0,0E0,0E0],"parents":[2147483647,0,0,1,1,2,2,3,3,4,4,5,5,6,6],"right_children":[2,4,6,8,10,12,14,-1,-1,-1,-1,-1,-1,-1,-1],"split_conditions":[1E0,1E0,1E0,1E0,3E0,1E0,1E0,-1.730506E-2,6.679409E-3,-5.443845E-2,4.151248E-2,-7.827579E-3,3.4076016E-2,-9.7721955E-3,4.2147018E-2],"split_indices":[9,60,21,29,17,100,105,0,0,0,0,0,0,0,0],"split_type":[0,0,0,0,0,0,0,0,0,0,0,0,0,0,0],"sum_hessian":[2.6078762E3,1.8490543E3,7.58822E2,1.6819026E3,1.6715175E2,5.2185474E2,2.3696727E2,1.0573829E3,6.2451965E2,1.6528095E1,1.5062366E2,9.763379E1,4.2422095E2,2.084048E2,2.8562466E1],"tree_param":{"num_deleted":"0","num_feature":"111","num_nodes":"15","size_leaf_vector":"1"}},{"base_weights":[3.444027E-4,-3.71434E-2,3.131422E-1,-9.273349E-3,-6.538668E-1,4.278215E-1,-3.179689E-1,-5.7041375E-3,1.7533077E-2,-8.212989E-2,-3.7973393E-2,5.050087E-2,-3.0614708E-2,-4.571838E-2,1.0984395E-1],"categories":[],"categories_nodes":[],"categories_segments":[],"categories_sizes":[],"default_left":[1,1,0,0,0,0,1,0,0,0,0,0,0,0,0],"id":48,"left_children":[1,3,5,7,9,11,13,-1,-1,-1,-1,-1,-1,-1,-1],"loss_changes":[3.0172092E1,3.9487198E1,2.0066166E1,1.9404486E1,4.2472687E0,1.3380497E1,8.964827E0,0E0,0E0,0E0,0E0,0E0,0E0,0E0,0E0],"parents":[2147483647,0,0,1,1,2,2,3,3,4,4,5,5,6,6],"right_children":[2,4,6,8,10,12,14,-1,-1,-1,-1,-1,-1,-1,-1],"split_conditions":[5E0,5E0,1E0,1E0,1E0,2.00001E0,1E0,-5.7041375E-3,1.7533077E-2,-8.212989E-2,-3.7973393E-2,5.050087E-2,-3.0614708E-2,-4.571838E-2,1.0984395E-1],"split_indices":[18,19,98,25,82,8,12,0,0,0,0,0,0,0,0],"split_type":[0,0,0,0,0,0,0,0,0,0,0,0,0,0,0],"sum_hessian":[2.571079E3,2.2967073E3,2.743717E2,2.1983765E3,9.833075E1,2.3245447E2,4.1917225E1,1.747012E3,4.5136456E2,5.9806664E1,3.8524082E1,2.1061705E2,2.1837425E1,3.878261E1,3.1346128E0],"tree_param":{"num_deleted":"0","num_feature":"111","num_nodes":"15","size_leaf_vector":"1"}},{"base_weights":[-1.1244212E-2,1.7941236E-3,-6.6785264E-1,-7.0937485E-2,1.1490097E-1,-8.259629E-1,1.4379178E-1,-4.600842E-3,-5.1941216E-2,1.4577611E-2,-3.9019134E-2,-9.920998E-2,-3.2798152E-2,5.683908E-2,-7.25065E-2],"categories":[],"categories_nodes":[],"categories_segments":[],"categories_sizes":[],"default_left":[0,0,0,1,0,1,0,0,0,0,0,0,0,0,0],"id":49,"left_children":[1,3,5,7,9,11,13,-1,-1,-1,-1,-1,-1,-1,-1],"loss_changes":[2.2212032E1,2.094345E1,6.6015472E0,1.7299685E1,1.5595085E1,3.1848698E0,3.7648463E0,0E0,0E0,0E0,0E0,0E0,0E0,0E0,0E0],"parents":[2147483647,0,0,1,1,2,2,3,3,4,4,5,5,6,6],"right_children":[2,4,6,8,10,12,14,-1,-1,-1,-1,-1,-1,-1,-1],"split_conditions":[1E0,5E0,1E0,5E0,1E0,4E0,5E0,-4.600842E-3,-5.1941216E-2,1.4577611E-2,-3.9019134E-2,-9.920998E-2,-3.2798152E-2,5.683908E-2,-7.25065E-2],"split_indices":[45,17,25,19,83,19,17,0,0,0,0,0,0,0,0],"split_type":[0,0,0,0,0,0,0,0,0,0,0,0,0,0,0],"sum_hessian":[2.5933958E3,2.543879E3,4.951678E1,1.5485078E3,9.953712E2,4.1428726E1,8.088054E0,1.4680092E3,8.049867E1,9.387019E2,5.666932E1,3.0320827E1,1.1107898E1,5.665309E0,2.4227452E0],"tree_param":{"num_deleted":"0","num_feature":"111","num_nodes":"15","size_leaf_vector":"1"}},{"base_weights":[3.0171791E-2,-1.24676116E-1,1.01610795E-1,-1.8934953E-1,6.390042E-2,2.4625838E-1,1.0391254E-2,-2.6780114E-2,3.6685527E-3,-2.6124699E-2,1.9291464E-2,6.2533193E-3,3.7776466E-2,-7.410505E-3,1.9255923E-2],"categories":[],"categories_nodes":[],"categories_segments":[],"categories_sizes":[],"default_left":[0,0,0,0,0,0,1,0,0,0,0,0,0,0,0],"id":50,"left_children":[1,3,5,7,9,11,13,-1,-1,-1,-1,-1,-1,-1,-1],"loss_changes":[2.8684052E1,9.996813E0,2.3406708E1,1.0824608E1,8.852102E0,1.6553017E1,1.677754E1,0E0,0E0,0E0,0E0,0E0,0E0,0E0,0E0],"parents":[2147483647,0,0,1,1,2,2,3,3,4,4,5,5,6,6],"right_children":[2,4,6,8,10,12,14,-1,-1,-1,-1,-1,-1,-1,-1],"split_conditions":[1E0,1E0,2E0,1E0,2E0,2E0,1E0,-2.6780114E-2,3.6685527E-3,-2.6124699E-2,1.9291464E-2,6.2533193E-3,3.7776466E-2,-7.410505E-3,1.9255923E-2],"split_indices":[7,26,19,25,18,0,9,0,0,0,0,0,0,0,0],"split_type":[0,0,0,0,0,0,0,0,0,0,0,0,0,0,0],"sum_hessian":[2.5908384E3,8.1769495E2,1.7731433E3,6.08874E2,2.0882095E2,6.8509033E2,1.0880531E3,4.5185922E2,1.5701482E2,5.9028854E1,1.497921E2,2.8641718E2,3.9867313E2,7.436935E2,3.4435956E2],"tree_param":{"num_deleted":"0","num_feature":"111","num_nodes":"15","size_leaf_vector":"1"}},{"base_weights":[-1.0148728E-4,-7.782117E-2,1.23059236E-1,-4.392853E-2,-3.8374177E-1,7.682237E-2,6.38437E-1,-1.2280792E-2,1.01666935E-2,-2.6546916E-2,-8.991553E-2,-4.0174123E-2,1.2205093E-2,7.425007E-2,-2.8659714E-2],"categories":[],"categories_nodes":[],"categories_segments":[],"categories_sizes":[],"default_left":[0,1,0,0,0,0,0,0,0,0,0,0,0,0,0],"id":51,"left_children":[1,3,5,7,9,11,13,-1,-1,-1,-1,-1,-1,-1,-1],"loss_changes":[2.4666597E1,1.6364677E1,2.3709164E1,1.6360497E1,9.359484E0,1.9877016E1,8.101082E0,0E0,0E0,0E0,0E0,0E0,0E0,0E0,0E0],"parents":[2147483647,0,0,1,1,2,2,3,3,4,4,5,5,6,6],"right_children":[2,4,6,8,10,12,14,-1,-1,-1,-1,-1,-1,-1,-1],"split_conditions":[1E0,5E0,5E0,1E0,1E0,3E0,2.00001E0,-1.2280792E-2,1.01666935E-2,-2.6546916E-2,-8.991553E-2,-4.0174123E-2,1.2205093E-2,7.425007E-2,-2.8659714E-2],"split_indices":[29,16,18,10,107,17,8,0,0,0,0,0,0,0,0],"split_type":[0,0,0,0,0,0,0,0,0,0,0,0,0,0,0],"sum_hessian":[2.5749495E3,1.5789393E3,9.960102E2,1.4224869E3,1.5645236E2,9.1506464E2,8.0945526E1,9.2273334E2,4.9975363E2,1.2848404E2,2.796833E1,7.8333626E1,8.36731E2,7.293758E1,8.007947E0],"tree_param":{"num_deleted":"0","num_feature":"111","num_nodes":"15","size_leaf_vector":"1"}},{"base_weights":[-2.0907344E-3,-1.3987137E-1,5.1320624E-2,-2.3384404E-1,9.730054E-2,-3.430167E-2,1.615777E-1,-3.8989887E-2,-8.336281E-3,1.4300078E-2,-5.4571588E-2,-1.8339079E-2,2.5794422E-3,6.415772E-3,3.3569325E-2],"categories":[],"categories_nodes":[],"categories_segments":[],"categories_sizes":[],"default_left":[0,0,1,0,1,0,0,0,0,0,0,0,0,0,0],"id":52,"left_children":[1,3,5,7,9,11,13,-1,-1,-1,-1,-1,-1,-1,-1],"loss_changes":[1.8976334E1,1.6077991E1,1.7548748E1,1.2090334E1,6.106049E0,9.383976E0,1.3759851E1,0E0,0E0,0E0,0E0,0E0,0E0,0E0,0E0],"parents":[2147483647,0,0,1,1,2,2,3,3,4,4,5,5,6,6],"right_children":[2,4,6,8,10,12,14,-1,-1,-1,-1,-1,-1,-1,-1],"split_conditions":[2E0,1E0,1E0,2E0,5E0,1E0,2E0,-3.8989887E-2,-8.336281E-3,1.4300078E-2,-5.4571588E-2,-1.8339079E-2,2.5794422E-3,6.415772E-3,3.3569325E-2],"split_indices":[15,10,13,18,19,7,1,0,0,0,0,0,0,0,0],"split_type":[0,0,0,0,0,0,0,0,0,0,0,0,0,0,0],"sum_hessian":[2.576663E3,7.193639E2,1.8572992E3,5.152319E2,2.0413202E2,1.0458291E3,8.1147015E2,2.5215079E2,2.6308105E2,1.9131271E2,1.2819304E1,2.998632E2,7.459659E2,5.21213E2,2.902572E2],"tree_param":{"num_deleted":"0","num_feature":"111","num_nodes":"15","size_leaf_vector":"1"}},{"base_weights":[1.0370262E-2,-7.138149E-2,1.05924584E-1,-5.9627004E-2,-7.9430234E-1,-1.2161866E-1,1.638566E-1,-1.0036996E-2,1.3653052E-2,-9.39003E-2,-2.6252434E-2,-1.7083043E-2,5.041168E-2,-2.2156151E-2,2.0115694E-2],"categories":[],"categories_nodes":[],"categories_segments":[],"categories_sizes":[],"default_left":[1,0,1,0,0,1,0,0,0,0,0,0,0,0,0],"id":53,"left_children":[1,3,5,7,9,11,13,-1,-1,-1,-1,-1,-1,-1,-1],"loss_changes":[2.0167982E1,1.1776516E1,1.5711093E1,1.0964885E1,1.4603138E0,7.5422454E0,1.3690647E1,0E0,0E0,0E0,0E0,0E0,0E0,0E0,0E0],"parents":[2147483647,0,0,1,1,2,2,3,3,4,4,5,5,6,6],"right_children":[2,4,6,8,10,12,14,-1,-1,-1,-1,-1,-1,-1,-1],"split_conditions":[1E0,1E0,2E0,1E0,1E0,3E0,1E0,-1.0036996E-2,1.3653052E-2,-9.39003E-2,-2.6252434E-2,-1.7083043E-2,5.041168E-2,-2.2156151E-2,2.0115694E-2],"split_indices":[13,71,18,12,29,15,1,0,0,0,0,0,0,0,0],"split_type":[0,0,0,0,0,0,0,0,0,0,0,0,0,0,0],"sum_hessian":[2.5797874E3,1.3904431E3,1.1893444E3,1.3692618E3,2.118133E1,2.4113274E2,9.482116E2,1.1341758E3,2.3508597E2,1.6048605E1,5.132723E0,2.2422525E2,1.6907494E1,8.323353E1,8.649781E2],"tree_param":{"num_deleted":"0","num_feature":"111","num_nodes":"15","size_leaf_vector":"1"}},{"base_weights":[6.193074E-3,-1.3772596E-1,7.441032E-2,-5.1568955E-1,-8.707802E-2,8.880748E-2,-6.400939E-1,-3.7818782E-2,-1.10437565E-1,-1.4828547E-2,1.2393003E-2,2.0767944E-2,1.1319645E-3,-8.993698E-2,-2.2780512E-2],"categories":[],"categories_nodes":[],"categories_segments":[],"categories_sizes":[],"default_left":[1,1,0,1,0,0,0,0,0,0,0,0,0,0,0],"id":54,"left_children":[1,3,5,7,9,11,13,-1,-1,-1,-1,-1,-1,-1,-1],"loss_changes":[2.5079565E1,1.5680671E1,1.7883823E1,7.423401E0,9.389786E0,1.5653241E1,3.467186E0,0E0,0E0,0E0,0E0,0E0,0E0,0E0,0E0],"parents":[2147483647,0,0,1,1,2,2,3,3,4,4,5,5,6,6],"right_children":[2,4,6,8,10,12,14,-1,-1,-1,-1,-1,-1,-1,-1],"split_conditions":[1E0,1E0,1E0,4E0,1E0,2E0,1E0,-3.7818782E-2,-1.10437565E-1,-1.4828547E-2,1.2393003E-2,2.0767944E-2,1.1319645E-3,-8.993698E-2,-2.2780512E-2],"split_indices":[7,1,70,15,26,19,6,0,0,0,0,0,0,0,0],"split_type":[0,0,0,0,0,0,0,0,0,0,0,0,0,0,0],"sum_hessian":[2.552466E3,8.204758E2,1.7319902E3,9.586856E1,7.246073E2,1.6986385E3,3.3351616E1,7.904753E1,1.6821026E1,5.6191034E2,1.6269698E2,6.696566E2,1.0289819E3,1.9750023E1,1.3601595E1],"tree_param":{"num_deleted":"0","num_feature":"111","num_nodes":"15","size_leaf_vector":"1"}},{"base_weights":[-5.680276E-3,-5.8805022E-2,1.5135746E-1,-9.966869E-2,2.503611E-1,-2.1963109E-1,1.8703161E-1,-1.1165796E-2,1.03688635E-1,3.458476E-2,-5.817109E-2,-4.536373E-2,1.5579477E-2,-6.9312095E-3,2.3705926E-2],"categories":[],"categories_nodes":[],"categories_segments":[],"categories_sizes":[],"default_left":[0,0,0,0,0,1,0,0,0,0,0,0,0,0,0],"id":55,"left_children":[1,3,5,7,9,11,13,-1,-1,-1,-1,-1,-1,-1,-1],"loss_changes":[2.1376093E1,2.4212292E1,8.6132345E0,2.3167982E1,1.7981804E1,5.1027613E0,7.601013E0,0E0,0E0,0E0,0E0,0E0,0E0,0E0,0E0],"parents":[2147483647,0,0,1,1,2,2,3,3,4,4,5,5,6,6],"right_children":[2,4,6,8,10,12,14,-1,-1,-1,-1,-1,-1,-1,-1],"split_conditions":[1E0,1E0,3E0,1E0,1E0,1E0,1E0,-1.1165796E-2,1.03688635E-1,3.458476E-2,-5.817109E-2,-4.536373E-2,1.5579477E-2,-6.9312095E-3,2.3705926E-2],"split_indices":[26,60,14,35,97,10,1,0,0,0,0,0,0,0,0],"split_type":[0,0,0,0,0,0,0,0,0,0,0,0,0,0,0],"sum_hessian":[2.5602183E3,1.9135153E3,6.46703E2,1.6907235E3,2.2279175E2,5.6279144E1,5.904239E2,1.6739669E3,1.6756548E1,2.0038089E2,2.2410854E1,3.454107E1,2.1738075E1,9.634786E1,4.9407602E2],"tree_param":{"num_deleted":"0","num_feature":"111","num_nodes":"15","size_leaf_vector":"1"}},{"base_weights":[1.2330168E-3,2.7099747E-2,-3.022389E-1,4.777102E-2,-3.20881E-1,-3.7362245E-1,1.3782498E-1,-2.7618257E-3,1.4405185E-2,-1.6957173E-2,-6.488095E-2,-2.2335803E-2,-6.135677E-2,-6.6388205E-2,3.3605438E-2],"categories":[],"categories_nodes":[],"categories_segments":[],"categories_sizes":[],"default_left":[0,1,1,0,0,1,1,0,0,0,0,0,0,0,0],"id":56,"left_children":[1,3,5,7,9,11,13,-1,-1,-1,-1,-1,-1,-1,-1],"loss_changes":[1.9979836E1,1.6885603E1,6.3312855E0,1.6079248E1,6.421626E0,6.074423E0,4.773363E0,0E0,0E0,0E0,0E0,0E0,0E0,0E0,0E0],"parents":[2147483647,0,0,1,1,2,2,3,3,4,4,5,5,6,6],"right_children":[2,4,6,8,10,12,14,-1,-1,-1,-1,-1,-1,-1,-1],"split_conditions":[1E0,5E0,5E0,3E0,1E0,3E0,1E0,-2.7618257E-3,1.4405185E-2,-1.6957173E-2,-6.488095E-2,-2.2335803E-2,-6.135677E-2,-6.6388205E-2,3.3605438E-2],"split_indices":[97,19,18,18,80,16,7,0,0,0,0,0,0,0,0],"split_type":[0,0,0,0,0,0,0,0,0,0,0,0,0,0,0],"sum_hessian":[2.5432148E3,2.3443064E3,1.9890855E2,2.2136694E3,1.30637E2,1.7127649E2,2.7632072E1,1.2419319E3,9.717375E2,9.042921E1,4.0207787E1,1.0650757E2,6.476892E1,5.012155E0,2.2619917E1],"tree_param":{"num_deleted":"0","num_feature":"111","num_nodes":"15","size_leaf_vector":"1"}},{"base_weights":[-4.8916074E-3,-1.1195316E-2,9.1148466E-1,-5.180304E-2,1.3721123E-1,1.153263E0,-4.8813662E-1,-1.2749306E-2,1.0466585E-2,2.3523567E-2,-8.5623665E-3,1.3052958E-1,6.2547845E-4,-1.4427304E-1,7.1191736E-2],"categories":[],"categories_nodes":[],"categories_segments":[],"categories_sizes":[],"default_left":[0,0,0,0,1,0,0,0,0,0,0,0,0,0,0],"id":57,"left_children":[1,3,5,7,9,11,13,-1,-1,-1,-1,-1,-1,-1,-1],"loss_changes":[1.4704077E1,1.5237832E1,6.447893E0,2.3522808E1,1.1886286E1,2.6296139E0,4.7665067E0,0E0,0E0,0E0,0E0,0E0,0E0,0E0,0E0],"parents":[2147483647,0,0,1,1,2,2,3,3,4,4,5,5,6,6],"right_children":[2,4,6,8,10,12,14,-1,-1,-1,-1,-1,-1,-1,-1],"split_conditions":[1E0,1E0,3E0,1E0,3E0,1E0,1E0,-1.2749306E-2,1.0466585E-2,2.3523567E-2,-8.5623665E-3,1.3052958E-1,6.2547845E-4,-1.4427304E-1,7.1191736E-2],"split_indices":[35,25,16,26,16,104,2,0,0,0,0,0,0,0,0],"split_type":[0,0,0,0,0,0,0,0,0,0,0,0,0,0,0],"sum_hessian":[2.5427024E3,2.5263118E3,1.6390594E1,1.9840714E3,5.4224036E2,1.4126349E1,2.2642453E0,1.3373358E3,6.4673553E2,3.7654407E2,1.6569629E2,1.2351226E1,1.7751231E0,1.1484661E0,1.115779E0],"tree_param":{"num_deleted":"0","num_feature":"111","num_nodes":"15","size_leaf_vector":"1"}},{"base_weights":[-1.7296439E-2,-7.112043E-2,1.274453E-1,-1.1813422E-1,1.738363E-1,8.554155E-2,3.4094748E-1,-9.332449E-3,-5.34659E-2,2.9621606E-3,3.3930115E-2,-4.1516675E-3,2.0378973E-2,6.147143E-2,6.9625624E-3],"categories":[],"categories_nodes":[],"categories_segments":[],"categories_sizes":[],"default_left":[1,0,1,0,1,0,0,0,0,0,0,0,0,0,0],"id":58,"left_children":[1,3,5,7,9,11,13,-1,-1,-1,-1,-1,-1,-1,-1],"loss_changes":[1.9847773E1,2.140498E1,6.149518E0,1.6055168E1,7.134452E0,8.702312E0,8.348754E0,0E0,0E0,0E0,0E0,0E0,0E0,0E0,0E0],"parents":[2147483647,0,0,1,1,2,2,3,3,4,4,5,5,6,6],"right_children":[2,4,6,8,10,12,14,-1,-1,-1,-1,-1,-1,-1,-1],"split_conditions":[1E0,1E0,5E0,5E0,2E0,1E0,2.00001E0,-9.332449E-3,-5.34659E-2,2.9621606E-3,3.3930115E-2,-4.1516675E-3,2.0378973E-2,6.147143E-2,6.9625624E-3],"split_indices":[10,12,18,19,1,82,13,0,0,0,0,0,0,0,0],"split_type":[0,0,0,0,0,0,0,0,0,0,0,0,0,0,0],"sum_hessian":[2.5455E3,1.8558777E3,6.8962225E2,1.5574741E3,2.9840347E2,5.776487E2,1.1197358E2,1.4710756E3,8.639859E1,1.6006987E2,1.383336E2,2.787642E2,2.9888452E2,5.5105694E1,5.6867886E1],"tree_param":{"num_deleted":"0","num_feature":"111","num_nodes":"15","size_leaf_vector":"1"}},{"base_weights":[-3.4022382E-3,7.116494E-2,-1.0140712E-1,-1.6177456E-1,1.16013475E-1,-1.6704702E-1,3.293922E-2,-2.3774114E-2,6.819071E-2,2.1908688E-3,2.3556834E-2,-1.4948587E-2,-8.727028E-2,6.9160694E-3,-5.5296727E-2],"categories":[],"categories_nodes":[],"categories_segments":[],"categories_sizes":[],"default_left":[0,0,0,0,1,0,0,0,0,0,0,0,0,0,0],"id":59,"left_children":[1,3,5,7,9,11,13,-1,-1,-1,-1,-1,-1,-1,-1],"loss_changes":[1.8487083E1,1.5027698E1,9.644642E0,1.5054881E1,1.3555372E1,8.971052E0,7.6698623E0,0E0,0E0,0E0,0E0,0E0,0E0,0E0,0E0],"parents":[2147483647,0,0,1,1,2,2,3,3,4,4,5,5,6,6],"right_children":[2,4,6,8,10,12,14,-1,-1,-1,-1,-1,-1,-1,-1],"split_conditions":[1E0,2E0,1E0,3E0,1E0,1E0,2E0,-2.3774114E-2,6.819071E-2,2.1908688E-3,2.3556834E-2,-1.4948587E-2,-8.727028E-2,6.9160694E-3,-5.5296727E-2],"split_indices":[89,18,29,15,13,45,21,0,0,0,0,0,0,0,0],"split_type":[0,0,0,0,0,0,0,0,0,0,0,0,0,0,0],"sum_hessian":[2.5277356E3,1.4356743E3,1.0920614E3,2.3136691E2,1.2043074E3,7.334592E2,3.5860217E2,2.1291399E2,1.8452936E1,6.745414E2,5.2976605E2,7.168318E2,1.6627438E1,3.3855426E2,2.004789E1],"tree_param":{"num_deleted":"0","num_feature":"111","num_nodes":"15","size_leaf_vector":"1"}},{"base_weights":[1.1221685E-2,-2.6032805E-1,3.9985865E-2,-4.2382208E-1,-5.8529846E-2,-1.5510444E-1,7.975266E-2,-3.1013275E-2,-9.702393E-2,-2.4568865E-2,3.6483314E-2,-1.811407E-2,5.1197436E-2,2.154083E-6,2.0157821E-2],"categories":[],"categories_nodes":[],"categories_segments":[],"categories_sizes":[],"default_left":[0,1,0,1,0,0,0,0,0,0,0,0,0,0,0],"id":60,"left_children":[1,3,5,7,9,11,13,-1,-1,-1,-1,-1,-1,-1,-1],"loss_changes":[1.9626537E1,7.915695E0,1.7636507E1,7.9485664E0,8.716761E0,6.7793674E0,1.8335878E1,0E0,0E0,0E0,0E0,0E0,0E0,0E0,0E0],"parents":[2147483647,0,0,1,1,2,2,3,3,4,4,5,5,6,6],"right_children":[2,4,6,8,10,12,14,-1,-1,-1,-1,-1,-1,-1,-1],"split_conditions":[3E0,4E0,2E0,1E0,1E0,1E0,1E0,-3.1013275E-2,-9.702393E-2,-2.4568865E-2,3.6483314E-2,-1.811407E-2,5.1197436E-2,2.154083E-6,2.0157821E-2],"split_indices":[17,14,18,8,10,31,29,0,0,0,0,0,0,0,0],"split_type":[0,0,0,0,0,0,0,0,0,0,0,0,0,0,0],"sum_hessian":[2.510377E3,2.3967378E2,2.2707031E3,1.3179506E2,1.0787872E2,3.83992E2,1.8867112E3,1.1039375E2,2.1401308E1,7.509893E1,3.2779793E1,3.7026877E2,1.3723222E1,1.1409768E3,7.457344E2],"tree_param":{"num_deleted":"0","num_feature":"111","num_nodes":"15","size_leaf_vector":"1"}},{"base_weights":[-1.4719411E-2,-6.479282E-2,1.2338393E-1,-1.3835926E-1,5.6406345E-2,7.893696E-2,3.6179668E-1,-1.4998198E-2,9.859872E-2,-1.8360052E-3,2.6899356E-2,1.1517166E-2,-3.321762E-2,4.712703E-2,-1.1839484E-3],"categories":[],"categories_nodes":[],"categories_segments":[],"categories_sizes":[],"default_left":[1,0,1,0,0,1,0,0,0,0,0,0,0,0,0],"id":61,"left_children":[1,3,5,7,9,11,13,-1,-1,-1,-1,-1,-1,-1,-1],"loss_changes":[1.7406763E1,1.647725E1,7.069561E0,1.5172525E1,1.1105695E1,8.4677E0,4.2994423E0,0E0,0E0,0E0,0E0,0E0,0E0,0E0,0E0],"parents":[2147483647,0,0,1,1,2,2,3,3,4,4,5,5,6,6],"right_children":[2,4,6,8,10,12,14,-1,-1,-1,-1,-1,-1,-1,-1],"split_conditions":[1E0,5E0,5E0,1E0,1E0,5E0,1E0,-1.4998198E-2,9.859872E-2,-1.8360052E-3,2.6899356E-2,1.1517166E-2,-3.321762E-2,4.712703E-2,-1.1839484E-3],"split_indices":[10,17,18,35,92,16,24,0,0,0,0,0,0,0,0],"split_type":[0,0,0,0,0,0,0,0,0,0,0,0,0,0,0],"sum_hessian":[2.5149797E3,1.8461388E3,6.688409E2,1.1487312E3,6.9740765E2,5.648649E2,1.0397593E2,1.1378356E3,1.0895554E1,5.166254E2,1.8078224E2,5.197731E2,4.5091915E1,8.021269E1,2.3763243E1],"tree_param":{"num_deleted":"0","num_feature":"111","num_nodes":"15","size_leaf_vector":"1"}},{"base_weights":[-8.580842E-3,1.627096E-2,-3.0149785E-1,-8.137431E-2,9.038963E-2,-1.319557E-1,-5.188506E-1,-6.0145054E-3,-6.628406E-2,1.5051794E-2,-1.5292868E-2,-1.8456032E-2,6.337351E-2,2.9255887E-2,-5.8460474E-2],"categories":[],"categories_nodes":[],"categories_segments":[],"categories_sizes":[],"default_left":[0,1,0,1,0,0,0,0,0,0,0,0,0,0,0],"id":62,"left_children":[1,3,5,7,9,11,13,-1,-1,-1,-1,-1,-1,-1,-1],"loss_changes":[1.8257149E1,1.674153E1,7.1595116E0,1.2282932E1,1.9260792E1,4.609346E0,4.738701E0,0E0,0E0,0E0,0E0,0E0,0E0,0E0,0E0],"parents":[2147483647,0,0,1,1,2,2,3,3,4,4,5,5,6,6],"right_children":[2,4,6,8,10,12,14,-1,-1,-1,-1,-1,-1,-1,-1],"split_conditions":[1E0,2E0,3E0,5E0,1E0,1E0,3E0,-6.0145054E-3,-6.628406E-2,1.5051794E-2,-1.5292868E-2,-1.8456032E-2,6.337351E-2,2.9255887E-2,-5.8460474E-2],"split_indices":[97,0,16,16,86,84,17,0,0,0,0,0,0,0,0],"split_type":[0,0,0,0,0,0,0,0,0,0,0,0,0,0,0],"sum_hessian":[2.5063433E3,2.3112E3,1.9514345E2,9.972746E2,1.3139253E3,1.1053202E2,8.461143E1,9.6321136E2,3.406328E1,1.0538752E3,2.6005002E2,1.0413657E2,6.395445E0,6.084092E0,7.8527336E1],"tree_param":{"num_deleted":"0","num_feature":"111","num_nodes":"15","size_leaf_vector":"1"}},{"base_weights":[6.182822E-3,4.361403E-2,-2.1706682E-1,1.2578385E-1,-5.4710798E-2,-3.4786507E-1,8.974839E-3,1.8797215E-2,-3.8908038E-3,-3.0895898E-2,3.9156177E-4,-5.2002937E-2,-8.722017E-3,-8.501417E-3,1.0948496E-1],"categories":[],"categories_nodes":[],"categories_segments":[],"categories_sizes":[],"default_left":[0,0,0,0,1,0,0,0,0,0,0,0,0,0,0],"id":63,"left_children":[1,3,5,7,9,11,13,-1,-1,-1,-1,-1,-1,-1,-1],"loss_changes":[2.1004116E1,1.7397268E1,1.0674007E1,1.20196E1,1.4617651E1,1.0215067E1,1.3694485E1,0E0,0E0,0E0,0E0,0E0,0E0,0E0,0E0],"parents":[2147483647,0,0,1,1,2,2,3,3,4,4,5,5,6,6],"right_children":[2,4,6,8,10,12,14,-1,-1,-1,-1,-1,-1,-1,-1],"split_conditions":[1E0,1E0,1E0,3E0,1E0,1E0,1E0,1.8797215E-2,-3.8908038E-3,-3.0895898E-2,3.9156177E-4,-5.2002937E-2,-8.722017E-3,-8.501417E-3,1.0948496E-1],"split_indices":[23,89,92,19,4,5,99,0,0,0,0,0,0,0,0],"split_type":[0,0,0,0,0,0,0,0,0,0,0,0,0,0,0],"sum_hessian":[2.5113723E3,2.151453E3,3.5991925E2,1.1718562E3,9.7959674E2,2.276509E2,1.3226836E2,8.505456E2,3.2131067E2,1.8275664E2,7.968401E2,1.3649585E2,9.115504E1,1.2258003E2,9.688333E0],"tree_param":{"num_deleted":"0","num_feature":"111","num_nodes":"15","size_leaf_vector":"1"}},{"base_weights":[3.434184E-3,-2.5162993E-2,2.3991102E-1,2.0188507E-2,-1.5734369E-1,3.422981E-1,-1.383005E-1,6.2214616E-3,-1.6209051E-2,3.234166E-3,-3.0333161E-2,4.0066563E-2,-2.4831831E-2,-2.7056793E-2,4.2736907E-2],"categories":[],"categories_nodes":[],"categories_segments":[],"categories_sizes":[],"default_left":[1,0,0,0,1,0,0,0,0,0,0,0,0,0,0],"id":64,"left_children":[1,3,5,7,9,11,13,-1,-1,-1,-1,-1,-1,-1,-1],"loss_changes":[1.6948633E1,1.3406889E1,1.0517576E1,1.2769869E1,1.5830199E1,7.4445057E0,4.4787006E0,0E0,0E0,0E0,0E0,0E0,0E0,0E0,0E0],"parents":[2147483647,0,0,1,1,2,2,3,3,4,4,5,5,6,6],"right_children":[2,4,6,8,10,12,14,-1,-1,-1,-1,-1,-1,-1,-1],"split_conditions":[5E0,3E0,1E0,1E0,3E0,2.00001E0,1E0,6.2214616E-3,-1.6209051E-2,3.234166E-3,-3.0333161E-2,4.0066563E-2,-2.4831831E-2,-2.7056793E-2,4.2736907E-2],"split_indices":[18,19,93,22,16,8,26,0,0,0,0,0,0,0,0],"split_type":[0,0,0,0,0,0,0,0,0,0,0,0,0,0,0],"sum_hessian":[2.5043486E3,2.2349673E3,2.693813E2,1.6646643E3,5.703029E2,2.1206683E2,5.731446E1,1.3533059E3,3.113585E2,2.4836948E2,3.2193344E2,1.9328693E2,1.8779917E1,4.68755E1,1.0438959E1],"tree_param":{"num_deleted":"0","num_feature":"111","num_nodes":"15","size_leaf_vector":"1"}},{"base_weights":[1.4500702E-3,2.9918589E-2,-2.894246E-1,-1.0229435E-1,8.490417E-2,-4.0977064E-1,-7.119029E-2,-2.2034388E-2,-7.114436E-4,1.2809359E-2,-1.43713355E-2,-4.6313144E-2,5.404082E-3,3.8544696E-2,-2.8767604E-2],"categories":[],"categories_nodes":[],"categories_segments":[],"categories_sizes":[],"default_left":[0,1,0,0,0,0,0,0,0,0,0,0,0,0,0],"id":65,"left_children":[1,3,5,7,9,11,13,-1,-1,-1,-1,-1,-1,-1,-1],"loss_changes":[2.0752811E1,1.6603346E1,5.838543E0,7.537112E0,1.5942373E1,3.5838394E0,8.080801E0,0E0,0E0,0E0,0E0,0E0,0E0,0E0,0E0],"parents":[2147483647,0,0,1,1,2,2,3,3,4,4,5,5,6,6],"right_children":[2,4,6,8,10,12,14,-1,-1,-1,-1,-1,-1,-1,-1],"split_conditions":[2.00001E0,2E0,1E0,2E0,1E0,1E0,3E0,-2.2034388E-2,-7.114436E-4,1.2809359E-2,-1.43713355E-2,-4.6313144E-2,5.404082E-3,3.8544696E-2,-2.8767604E-2],"split_indices":[8,15,10,18,23,60,18,0,0,0,0,0,0,0,0],"split_type":[0,0,0,0,0,0,0,0,0,0,0,0,0,0,0],"sum_hessian":[2.504099E3,2.281683E3,2.22416E2,6.699431E2,1.61174E3,1.4279408E2,7.962192E1,2.9845767E2,3.7148544E2,1.3560085E3,2.5573146E2,1.2806218E2,1.4731894E1,2.535651E1,5.4265408E1],"tree_param":{"num_deleted":"0","num_feature":"111","num_nodes":"15","size_leaf_vector":"1"}},{"base_weights":[2.326799E-3,-3.8700693E-3,9.06094E-1,6.448056E-3,-5.103965E-1,1.0784547E0,-1.9336127E-1,5.071047E-3,-1.2587358E-2,-8.573256E-2,-2.3798838E-2,7.0905134E-2,1.363443E-1,-6.551864E-2,3.3648696E-2],"categories":[],"categories_nodes":[],"categories_segments":[],"categories_sizes":[],"default_left":[0,0,0,1,1,0,0,0,0,0,0,0,0,0,0],"id":66,"left_children":[1,3,5,7,9,11,13,-1,-1,-1,-1,-1,-1,-1,-1],"loss_changes":[1.3913272E1,1.2900668E1,3.4145346E0,1.4176843E1,4.4530087E0,5.8893013E-1,9.889929E-1,0E0,0E0,0E0,0E0,0E0,0E0,0E0,0E0],"parents":[2147483647,0,0,1,1,2,2,3,3,4,4,5,5,6,6],"right_children":[2,4,6,8,10,12,14,-1,-1,-1,-1,-1,-1,-1,-1],"split_conditions":[1E0,1E0,1E0,3E0,2E0,2E0,1E0,5.071047E-3,-1.2587358E-2,-8.573256E-2,-2.3798838E-2,7.0905134E-2,1.363443E-1,-6.551864E-2,3.3648696E-2],"split_indices":[35,45,6,19,19,19,22,0,0,0,0,0,0,0,0],"split_type":[0,0,0,0,0,0,0,0,0,0,0,0,0,0,0],"sum_hessian":[2.482653E3,2.466735E3,1.5917965E1,2.4184575E3,4.8277576E1,1.3777222E1,2.1407435E0,1.812711E3,6.0574646E2,2.0289896E1,2.798768E1,7.519022E0,6.2582E0,1.0174024E0,1.123341E0],"tree_param":{"num_deleted":"0","num_feature":"111","num_nodes":"15","size_leaf_vector":"1"}},{"base_weights":[-7.128161E-3,2.2338082E-3,-7.037546E-1,-2.5317274E-2,2.4556091E-1,2.0448878E-1,-7.717917E-1,-9.7580656E-4,-3.8940918E-2,1.2317962E-2,7.625075E-2,-2.427721E-2,5.4484684E-2,-8.6742476E-2,-2.4134878E-2],"categories":[],"categories_nodes":[],"categories_segments":[],"categories_sizes":[],"default_left":[0,1,1,1,0,0,0,0,0,0,0,0,0,0,0],"id":67,"left_children":[1,3,5,7,9,11,13,-1,-1,-1,-1,-1,-1,-1,-1],"loss_changes":[1.6248508E1,1.6492094E1,2.1993904E0,1.2515384E1,1.5735692E1,6.031134E-1,1.3604317E0,0E0,0E0,0E0,0E0,0E0,0E0,0E0,0E0],"parents":[2147483647,0,0,1,1,2,2,3,3,4,4,5,5,6,6],"right_children":[2,4,6,8,10,12,14,-1,-1,-1,-1,-1,-1,-1,-1],"split_conditions":[1E0,5E0,3E0,5E0,1E0,1E0,1E0,-9.7580656E-4,-3.8940918E-2,1.2317962E-2,7.625075E-2,-2.427721E-2,5.4484684E-2,-8.6742476E-2,-2.4134878E-2],"split_indices":[71,18,14,19,92,5,23,0,0,0,0,0,0,0,0],"split_type":[0,0,0,0,0,0,0,0,0,0,0,0,0,0,0],"sum_hessian":[2.4901758E3,2.4581377E3,3.2038143E1,2.2089248E3,2.4921292E2,2.0929735E0,2.9945168E1,2.1193813E3,8.954346E1,2.0250938E2,4.670354E1,1.028348E0,1.0646256E0,2.48328E1,5.112367E0],"tree_param":{"num_deleted":"0","num_feature":"111","num_nodes":"15","size_leaf_vector":"1"}},{"base_weights":[2.1314153E-3,1.3890859E-2,-5.989723E-1,1.02284215E-1,-5.5334948E-2,2.1918617E-1,-7.530664E-1,1.6030934E-2,-1.6739171E-2,-1.9610801E-3,-3.616479E-2,1.3961184E-1,-3.086156E-2,-8.689378E-2,-1.0447706E-2],"categories":[],"categories_nodes":[],"categories_segments":[],"categories_sizes":[],"default_left":[0,1,1,0,0,1,0,0,0,0,0,0,0,0,0],"id":68,"left_children":[1,3,5,7,9,11,13,-1,-1,-1,-1,-1,-1,-1,-1],"loss_changes":[1.7613918E1,1.4959816E1,6.1929817E0,1.682777E1,1.4997275E1,5.6193223E0,2.9499245E0,0E0,0E0,0E0,0E0,0E0,0E0,0E0,0E0],"parents":[2147483647,0,0,1,1,2,2,3,3,4,4,5,5,6,6],"right_children":[2,4,6,8,10,12,14,-1,-1,-1,-1,-1,-1,-1,-1],"split_conditions":[1E0,2E0,1E0,1E0,1E0,4E0,1E0,1.6030934E-2,-1.6739171E-2,-1.9610801E-3,-3.616479E-2,1.3961184E-1,-3.086156E-2,-8.689378E-2,-1.0447706E-2],"split_indices":[70,19,4,22,28,17,53,0,0,0,0,0,0,0,0],"split_type":[0,0,0,0,0,0,0,0,0,0,0,0,0,0,0],"sum_hessian":[2.4896611E3,2.4428481E3,4.681276E1,1.072681E3,1.3701672E3,7.352492E0,3.9460266E1,8.8307806E2,1.8960292E2,1.2280127E3,1.4215457E2,1.7670449E0,5.585447E0,3.3190926E1,6.2693396E0],"tree_param":{"num_deleted":"0","num_feature":"111","num_nodes":"15","size_leaf_vector":"1"}},{"base_weights":[1.10789975E-2,2.0741308E-2,-5.746641E-1,-4.4070117E-2,9.704884E-2,-7.09032E-1,2.697687E-1,7.287056E-4,-2.412515E-2,1.2091248E-2,-1.8848538E-2,-3.857195E-2,-1.1324119E-1,6.9588624E-2,-6.1195593E-2],"categories":[],"categories_nodes":[],"categories_segments":[],"categories_sizes":[],"default_left":[0,1,0,0,0,0,0,0,0,0,0,0,0,0,0],"id":69,"left_children":[1,3,5,7,9,11,13,-1,-1,-1,-1,-1,-1,-1,-1],"loss_changes":[1.4166361E1,1.2177017E1,4.8002653E0,1.3486502E1,7.727395E0,4.3979263E0,2.7931383E0,0E0,0E0,0E0,0E0,0E0,0E0,0E0,0E0],"parents":[2147483647,0,0,1,1,2,2,3,3,4,4,5,5,6,6],"right_children":[2,4,6,8,10,12,14,-1,-1,-1,-1,-1,-1,-1,-1],"split_conditions":[1E0,1E0,1E0,1E0,1E0,3E0,1E0,7.287056E-4,-2.412515E-2,1.2091248E-2,-1.8848538E-2,-3.857195E-2,-1.1324119E-1,6.9588624E-2,-6.1195593E-2],"split_indices":[49,13,29,27,97,18,9,0,0,0,0,0,0,0,0],"split_type":[0,0,0,0,0,0,0,0,0,0,0,0,0,0,0],"sum_hessian":[2.4999478E3,2.4603271E3,3.962051E1,1.3306061E3,1.1297211E3,3.4319817E1,5.300695E0,1.0564181E3,2.7418796E2,1.0431185E3,8.660252E1,2.0543156E1,1.3776659E1,3.7157326E0,1.5849625E0],"tree_param":{"num_deleted":"0","num_feature":"111","num_nodes":"15","size_leaf_vector":"1"}},{"base_weights":[-1.1442854E-2,-1.2324986E-1,4.0862147E-2,-1.3293117E-1,7.449436E-1,1.613606E-1,-3.51426E-2,-7.964088E-3,-3.2525867E-2,-2.897374E-3,1.11939445E-1,2.1235703E-2,-1.4347791E-2,-2.3700173E-3,-6.580162E-2],"categories":[],"categories_nodes":[],"categories_segments":[],"categories_sizes":[],"default_left":[0,0,0,0,0,0,0,0,0,0,0,0,0,0,0],"id":70,"left_children":[1,3,5,7,9,11,13,-1,-1,-1,-1,-1,-1,-1,-1],"loss_changes":[1.4598585E1,6.786132E0,1.5582942E1,8.046989E0,2.618917E0,1.0260288E1,7.4238577E0,0E0,0E0,0E0,0E0,0E0,0E0,0E0,0E0],"parents":[2147483647,0,0,1,1,2,2,3,3,4,4,5,5,6,6],"right_children":[2,4,6,8,10,12,14,-1,-1,-1,-1,-1,-1,-1,-1],"split_conditions":[1E0,1E0,2E0,1E0,2E0,1E0,1E0,-7.964088E-3,-3.2525867E-2,-2.897374E-3,1.11939445E-1,2.1235703E-2,-1.4347791E-2,-2.3700173E-3,-6.580162E-2],"split_indices":[7,35,19,22,18,23,72,0,0,0,0,0,0,0,0],"split_type":[0,0,0,0,0,0,0,0,0,0,0,0,0,0,0],"sum_hessian":[2.4944492E3,7.945867E2,1.6998624E3,7.8666144E2,7.925251E0,6.5704913E2,1.0428134E3,6.170913E2,1.6957016E2,2.885045E0,5.040206E0,5.6314417E2,9.3905E1,1.0250214E3,1.7791988E1],"tree_param":{"num_deleted":"0","num_feature":"111","num_nodes":"15","size_leaf_vector":"1"}},{"base_weights":[-7.905244E-3,-3.1710025E-2,1.8644619E-1,1.0561108E-4,-1.7865643E-1,3.0806896E-1,-1.2214749E-1,7.6383348E-3,-6.2735574E-3,-1.0410952E-2,-4.1092902E-2,-1.32474555E-2,3.8520485E-2,-2.4563303E-2,5.46515E-2],"categories":[],"categories_nodes":[],"categories_segments":[],"categories_sizes":[],"default_left":[1,0,1,1,0,1,0,0,0,0,0,0,0,0,0],"id":71,"left_children":[1,3,5,7,9,11,13,-1,-1,-1,-1,-1,-1,-1,-1],"loss_changes":[1.1489122E1,1.0341885E1,1.0208143E1,8.725742E0,6.774214E0,6.665884E0,6.518826E0,0E0,0E0,0E0,0E0,0E0,0E0,0E0,0E0],"parents":[2147483647,0,0,1,1,2,2,3,3,4,4,5,5,6,6],"right_children":[2,4,6,8,10,12,14,-1,-1,-1,-1,-1,-1,-1,-1],"split_conditions":[1E0,2E0,1E0,2E0,1E0,1E0,5E0,7.6383348E-3,-6.2735574E-3,-1.0410952E-2,-4.1092902E-2,-1.32474555E-2,3.8520485E-2,-2.4563303E-2,5.46515E-2],"split_indices":[12,21,8,19,80,4,18,0,0,0,0,0,0,0,0],"split_type":[0,0,0,0,0,0,0,0,0,0,0,0,0,0,0],"sum_hessian":[2.481055E3,2.2110725E3,2.6998233E2,1.8183727E3,3.926999E2,1.9365918E2,7.632315E1,8.2127686E2,9.970958E2,2.9838327E2,9.431663E1,2.8748938E1,1.6491023E2,6.49594E1,1.1363754E1],"tree_param":{"num_deleted":"0","num_feature":"111","num_nodes":"15","size_leaf_vector":"1"}},{"base_weights":[2.8351173E-3,-5.485959E-2,9.529326E-2,-1.137542E-1,8.5141465E-2,-2.9199687E-1,1.3021709E-1,-1.1975234E-2,1.0860989E-1,2.6325319E-2,-5.4946295E-3,-6.0054928E-2,2.149686E-3,2.1246381E-2,2.4211893E-3],"categories":[],"categories_nodes":[],"categories_segments":[],"categories_sizes":[],"default_left":[0,1,0,0,0,0,0,0,0,0,0,0,0,0,0],"id":72,"left_children":[1,3,5,7,9,11,13,-1,-1,-1,-1,-1,-1,-1,-1],"loss_changes":[1.3211884E1,1.2584769E1,1.2909822E1,7.85915E0,1.1296739E1,7.6570067E0,7.6116877E0,0E0,0E0,0E0,0E0,0E0,0E0,0E0,0E0],"parents":[2147483647,0,0,1,1,2,2,3,3,4,4,5,5,6,6],"right_children":[2,4,6,8,10,12,14,-1,-1,-1,-1,-1,-1,-1,-1],"split_conditions":[1E0,1E0,3E0,1E0,1E0,4E0,1E0,-1.1975234E-2,1.0860989E-1,2.6325319E-2,-5.4946295E-3,-6.0054928E-2,2.149686E-3,2.1246381E-2,2.4211893E-3],"split_indices":[29,9,17,65,8,14,91,0,0,0,0,0,0,0,0],"split_type":[0,0,0,0,0,0,0,0,0,0,0,0,0,0,0],"sum_hessian":[2.4747783E3,1.5241202E3,9.50658E2,1.072948E3,4.511723E2,7.802571E1,8.7263226E2,1.0685066E3,4.44134E0,1.9824217E2,2.5293015E2,3.886129E1,3.9164417E1,4.9081622E2,3.8181607E2],"tree_param":{"num_deleted":"0","num_feature":"111","num_nodes":"15","size_leaf_vector":"1"}},{"base_weights":[-2.3526156E-2,-1.3221064E-1,2.6421923E-2,-1.1714259E-1,-7.553743E-1,1.3329048E-3,2.1574761E-1,-6.8298625E-3,-2.8662084E-2,-1.0411783E-1,-1.3189363E-2,-8.17833E-3,7.985742E-3,4.6065684E-2,-4.8558973E-3],"categories":[],"categories_nodes":[],"categories_segments":[],"categories_sizes":[],"default_left":[0,0,1,0,0,0,1,0,0,0,0,0,0,0,0],"id":73,"left_children":[1,3,5,7,9,11,13,-1,-1,-1,-1,-1,-1,-1,-1],"loss_changes":[1.3358683E1,7.186679E0,8.009976E0,6.252495E0,3.089491E0,9.731606E0,1.2795052E1,0E0,0E0,0E0,0E0,0E0,0E0,0E0,0E0],"parents":[2147483647,0,0,1,1,2,2,3,3,4,4,5,5,6,6],"right_children":[2,4,6,8,10,12,14,-1,-1,-1,-1,-1,-1,-1,-1],"split_conditions":[1E0,1E0,5E0,3E0,3E0,1E0,3E0,-6.8298625E-3,-2.8662084E-2,-1.0411783E-1,-1.3189363E-2,-8.17833E-3,7.985742E-3,4.6065684E-2,-4.8558973E-3],"split_indices":[7,45,18,19,15,55,0,0,0,0,0,0,0,0,0],"split_type":[0,0,0,0,0,0,0,0,0,0,0,0,0,0,0],"sum_hessian":[2.4591619E3,7.7378906E2,1.6853728E3,7.5668054E2,1.7108511E1,1.4890537E3,1.9631905E2,5.8848193E2,1.6819865E2,1.1271638E1,5.8368735E0,7.2335706E2,7.656967E2,1.01513084E2,9.4805954E1],"tree_param":{"num_deleted":"0","num_feature":"111","num_nodes":"15","size_leaf_vector":"1"}},{"base_weights":[-2.2962882E-5,-4.761087E-2,1.1880584E-1,-1.1035431E-1,4.3246347E-2,2.684735E-1,7.0377276E-3,-1.4863431E-2,2.401766E-2,9.2376685E-3,-4.0225994E-2,2.9117389E-2,-1.2063612E-1,-1.3461174E-2,1.7129859E-2],"categories":[],"categories_nodes":[],"categories_segments":[],"categories_sizes":[],"default_left":[1,0,0,1,0,0,0,0,0,0,0,0,0,0,0],"id":74,"left_children":[1,3,5,7,9,11,13,-1,-1,-1,-1,-1,-1,-1,-1],"loss_changes":[1.3883972E1,9.998968E0,1.1742785E1,1.3954523E1,1.5727573E1,1.0399387E1,9.39901E0,0E0,0E0,0E0,0E0,0E0,0E0,0E0,0E0],"parents":[2147483647,0,0,1,1,2,2,3,3,4,4,5,5,6,6],"right_children":[2,4,6,8,10,12,14,-1,-1,-1,-1,-1,-1,-1,-1],"split_conditions":[1E0,4E0,1E0,3E0,1E0,1E0,3E0,-1.4863431E-2,2.401766E-2,9.2376685E-3,-4.0225994E-2,2.9117389E-2,-1.2063612E-1,-1.3461174E-2,1.7129859E-2],"split_indices":[9,18,8,0,28,32,15,0,0,0,0,0,0,0,0],"split_type":[0,0,0,0,0,0,0,0,0,0,0,0,0,0,0],"sum_hessian":[2.4532478E3,1.752154E3,7.0109375E2,1.0362999E3,7.158542E2,2.9912973E2,4.01964E2,9.3479126E2,1.0150861E2,6.454651E2,7.03891E1,2.953858E2,3.7439463E0,2.1593451E2,1.8602946E2],"tree_param":{"num_deleted":"0","num_feature":"111","num_nodes":"15","size_leaf_vector":"1"}},{"base_weights":[1.3430008E-2,3.686044E-2,-2.2399092E-1,-2.2714524E-1,6.096656E-2,-3.188943E-1,2.0829846E-1,-3.206495E-2,2.967268E-2,9.276465E-3,-1.2334622E-2,-3.0300894E-3,-4.9107563E-2,-6.7423E-3,5.3105474E-2],"categories":[],"categories_nodes":[],"categories_segments":[],"categories_sizes":[],"default_left":[0,0,0,1,0,1,0,0,0,0,0,0,0,0,0],"id":75,"left_children":[1,3,5,7,9,11,13,-1,-1,-1,-1,-1,-1,-1,-1],"loss_changes":[1.3722006E1,1.4299154E1,9.156711E0,9.30517E0,1.2070797E1,9.032902E0,3.6392298E0,0E0,0E0,0E0,0E0,0E0,0E0,0E0,0E0],"parents":[2147483647,0,0,1,1,2,2,3,3,4,4,5,5,6,6],"right_children":[2,4,6,8,10,12,14,-1,-1,-1,-1,-1,-1,-1,-1],"split_conditions":[1E0,3E0,1E0,5E0,1E0,2E0,4E0,-3.206495E-2,2.967268E-2,9.276465E-3,-1.2334622E-2,-3.0300894E-3,-4.9107563E-2,-6.7423E-3,5.3105474E-2],"split_indices":[28,14,105,17,23,0,16,0,0,0,0,0,0,0,0],"split_type":[0,0,0,0,0,0,0,0,0,0,0,0,0,0,0],"sum_hessian":[2.4642273E3,2.2436519E3,2.2057524E2,1.8702011E2,2.0566318E3,1.8108315E2,3.949209E1,1.590243E2,2.7995811E1,1.7544471E3,3.0218472E2,6.81062E1,1.1297695E2,2.1724539E1,1.776755E1],"tree_param":{"num_deleted":"0","num_feature":"111","num_nodes":"15","size_leaf_vector":"1"}},{"base_weights":[-8.8838795E-3,1.9900415E-3,-5.6827027E-1,-3.740803E-3,8.925792E-1,4.077157E-1,-6.239724E-1,1.8945624E-3,-2.39754E-2,1.0574154E-1,-1.8784296E-2,-1.7148282E-2,8.018396E-2,-7.890056E-2,-2.102088E-2],"categories":[],"categories_nodes":[],"categories_segments":[],"categories_sizes":[],"default_left":[0,0,1,0,0,0,1,0,0,0,0,0,0,0,0],"id":76,"left_children":[1,3,5,7,9,11,13,-1,-1,-1,-1,-1,-1,-1,-1],"loss_changes":[1.4949385E1,1.2311882E1,2.8021317E0,1.2839893E1,2.945446E0,8.531571E-1,2.8884373E0,0E0,0E0,0E0,0E0,0E0,0E0,0E0,0E0],"parents":[2147483647,0,0,1,1,2,2,3,3,4,4,5,5,6,6],"right_children":[2,4,6,8,10,12,14,-1,-1,-1,-1,-1,-1,-1,-1],"split_conditions":[1E0,1E0,2E0,2.00001E0,1E0,1E0,1E0,1.8945624E-3,-2.39754E-2,1.0574154E-1,-1.8784296E-2,-1.7148282E-2,8.018396E-2,-7.890056E-2,-2.102088E-2],"split_indices":[70,35,17,8,6,21,9,0,0,0,0,0,0,0,0],"split_type":[0,0,0,0,0,0,0,0,0,0,0,0,0,0,0],"sum_hessian":[2.4564937E3,2.41063E3,4.5863827E1,2.3962063E3,1.4423527E1,2.1350446E0,4.3728783E1,2.186912E3,2.0929405E2,1.2532744E1,1.8907821E0,1.0932792E0,1.0417655E0,3.0612019E1,1.3116764E1],"tree_param":{"num_deleted":"0","num_feature":"111","num_nodes":"15","size_leaf_vector":"1"}},{"base_weights":[-2.3431822E-3,-4.4825796E-2,1.1728553E-1,-6.574203E-2,2.7788094E-1,3.9346468E-2,2.5787306E-1,-7.365476E-3,7.522728E-2,-5.906595E-2,3.673969E-2,-2.5757921E-3,4.19721E-2,5.1394112E-2,4.1128625E-3],"categories":[],"categories_nodes":[],"categories_segments":[],"categories_sizes":[],"default_left":[0,0,0,0,0,1,0,0,0,0,0,0,0,0,0],"id":77,"left_children":[1,3,5,7,9,11,13,-1,-1,-1,-1,-1,-1,-1,-1],"loss_changes":[1.2470451E1,1.2240188E1,7.0357933E0,1.1067442E1,8.801069E0,1.0284782E1,1.2697782E1,0E0,0E0,0E0,0E0,0E0,0E0,0E0,0E0],"parents":[2147483647,0,0,1,1,2,2,3,3,4,4,5,5,6,6],"right_children":[2,4,6,8,10,12,14,-1,-1,-1,-1,-1,-1,-1,-1],"split_conditions":[1E0,1E0,4E0,1E0,1E0,3E0,3E0,-7.365476E-3,7.522728E-2,-5.906595E-2,3.673969E-2,-2.5757921E-3,4.19721E-2,5.1394112E-2,4.1128625E-3],"split_indices":[26,34,18,35,12,15,15,0,0,0,0,0,0,0,0],"split_type":[0,0,0,0,0,0,0,0,0,0,0,0,0,0,0],"sum_hessian":[2.4517449E3,1.8097062E3,6.4203864E2,1.7002977E3,1.0940848E2,4.1387436E2,2.2816425E2,1.6849094E3,1.53883095E1,9.699491E0,9.9708984E1,3.5418484E2,5.9689514E1,1.03965385E2,1.2419885E2],"tree_param":{"num_deleted":"0","num_feature":"111","num_nodes":"15","size_leaf_vector":"1"}},{"base_weights":[-1.3161271E-2,1.1035844E-2,-2.9933423E-1,-1.1964575E-2,2.4095911E-1,-3.715068E-1,1.5558033E-1,1.4295001E-3,-2.797747E-2,8.231687E-3,3.8873818E-2,-5.475065E-2,-8.428956E-3,-6.0720563E-2,4.4121113E-2],"categories":[],"categories_nodes":[],"categories_segments":[],"categories_sizes":[],"default_left":[0,0,1,0,0,0,1,0,0,0,0,0,0,0,0],"id":78,"left_children":[1,3,5,7,9,11,13,-1,-1,-1,-1,-1,-1,-1,-1],"loss_changes":[1.6893814E1,1.1901712E1,6.3025856E0,1.4395164E1,4.766041E0,8.267E0,6.095782E0,0E0,0E0,0E0,0E0,0E0,0E0,0E0,0E0],"parents":[2147483647,0,0,1,1,2,2,3,3,4,4,5,5,6,6],"right_children":[2,4,6,8,10,12,14,-1,-1,-1,-1,-1,-1,-1,-1],"split_conditions":[1E0,1E0,5E0,2.00001E0,3E0,1E0,1E0,1.4295001E-3,-2.797747E-2,8.231687E-3,3.8873818E-2,-5.475065E-2,-8.428956E-3,-6.0720563E-2,4.4121113E-2],"split_indices":[97,60,18,8,18,86,2,0,0,0,0,0,0,0,0],"split_type":[0,0,0,0,0,0,0,0,0,0,0,0,0,0,0],"sum_hessian":[2.438218E3,2.2490159E3,1.8920221E2,2.0453561E3,2.0365964E2,1.6345352E2,2.5748693E1,1.8635739E3,1.817823E2,9.897069E1,1.0468895E2,1.0078729E2,6.266623E1,6.708253E0,1.904044E1],"tree_param":{"num_deleted":"0","num_feature":"111","num_nodes":"15","size_leaf_vector":"1"}},{"base_weights":[1.4669812E-2,-4.1679714E-2,1.0330571E-1,-9.437976E-2,1.0517708E-1,-2.1614547E-1,1.4001809E-1,-1.16934925E-2,4.3938156E-2,1.5612088E-2,-1.8435821E-2,1.6319951E-2,-5.4801773E-2,1.8083911E-2,-1.4105014E-2],"categories":[],"categories_nodes":[],"categories_segments":[],"categories_sizes":[],"default_left":[0,1,0,0,0,1,0,0,0,0,0,0,0,0,0],"id":79,"left_children":[1,3,5,7,9,11,13,-1,-1,-1,-1,-1,-1,-1,-1],"loss_changes":[1.2070197E1,1.1445538E1,1.1045032E1,1.31487875E1,5.7913694E0,1.2326765E1,9.69763E0,0E0,0E0,0E0,0E0,0E0,